0.017119,-0.016848,-0.025490,-0.031203,0.013947,-0.032451,0.004433,-0.030927,-0.017191,0.012509,0.028960,-0.008220,0.001167,0.016853,-0.012026,0.027053,0.014815,-0.023930,0.008096,0.022415,-0.002997,0.002664,-0.001326,-0.008848,-0.000685,0.020120,0.016706,-0.003453,-0.001720,0.026699,0.022692,-0.017683,-0.023230,-0.035879,-0.010539,0.029052,-0.030599,0.031764,-0.035163,-0.008728,0.010262,0.023396,0.020679,-0.041799,-0.049205,-0.054603,-0.026273,-0.002091,-0.009602,0.019345,-0.012801,0.025960,-0.010241,0.024242,-0.015970,0.027422,0.011280,-0.032345,-0.009113,-0.023522,0.032701,-0.019503,-0.002858,-0.023856,-0.017271,0.032090,-0.031409,-0.028564,0.026430,-0.005180,0.002414,-0.045888,-0.096393,-0.056122,-0.015503,0.011361,0.000753,0.025197,-0.004990,-0.018888,0.015746,0.016724,-0.025990,-0.023337,0.011087,-0.003613,-0.028970,-0.010709,0.002389,0.000197,0.002333,-0.012752,-0.057981,-0.173340,-0.164092,-0.255859,-0.060706,0.004042,-0.310443,-0.427275,-0.398720,0.052908,-0.155731,-0.218623,-0.189752,-0.164267,-0.022945,-0.028508,-0.066774,0.010000,-0.032673,-0.033451,-0.000422,-0.015255,-0.018351,-0.022370,0.021026,-0.017761,-0.021258,-0.054986,-0.054402,-0.251020,-0.115313,-0.090248,0.067659,0.228082,0.422945,0.255737,0.238230,0.253399,0.144630,0.204044,0.163826,0.193010,0.158320,0.077266,-0.000145,-0.061070,-0.034511,-0.048361,-0.035820,0.015835,-0.029248,0.009602,-0.033591,-0.016326,-0.094228,-0.221813,-0.476251,-0.543976,-0.664997,-0.594313,-0.514987,-0.636032,0.010384,-0.375376,-0.801113,-0.876419,-0.508780,0.076565,0.302411,0.409199,0.406842,0.335526,0.128021,-0.087695,-0.037763,0.000008,0.012316,0.019200,0.004749,0.026607,-0.007687,-0.073147,-0.311887,-0.562210,-0.875916,-1.044725,-1.097286,-0.281639,-0.115953,0.029985,-0.172035,-0.580390,-0.094373,0.266760,-0.066695,-0.157196,0.125229,0.081040,0.261866,0.087709,-0.112513,-0.091695,0.029976,-0.006925,-0.021020,-0.033653,0.026243,0.007670,-0.028134,-0.168565,-0.477030,-0.765925,-0.862735,-1.096396,-1.156628,-0.465002,-0.048639,0.145466,-0.285789,-0.141019,0.234524,-0.101115,-0.349129,0.079276,-0.038278,-0.231549,-0.213803,-0.407679,-0.460387,-0.206114,-0.039474,-0.013706,0.023250,-0.047347,0.009462,-0.057719,-0.088152,-0.180803,-0.452923,-0.690736,-0.671454,-0.859066,-1.037642,-0.672041,-0.152287,-0.402353,-0.494718,0.071581,-0.010465,-0.065017,-0.514648,-0.534275,-0.451373,-0.530645,-0.550729,-0.723877,-0.569775,-0.184989,-0.021813,0.011765,0.032773,0.024188,-0.028360,0.001522,-0.044413,-0.127543,-0.362280,-0.590342,-0.921091,-1.009305,-0.567511,-0.537589,-0.476235,-0.335315,-0.331135,0.634633,-0.024028,-0.746735,-0.772209,-1.094704,-0.622709,-0.631059,-0.707663,-0.756340,-0.491488,-0.094511,0.016833,-0.016054,0.013396,0.005555,0.019503,-0.006824,-0.089922,-0.177190,-0.591383,-0.625213,-0.827497,-0.428955,0.088952,0.102718,-0.186256,-0.289069,0.105608,0.821369,0.060582,-0.430045,-0.618885,-0.676350,-0.756651,-0.788725,-0.768302,-0.577026,-0.261738,-0.022511,0.008554,-0.003398,0.031943,-0.011679,-0.006553,-0.009460,-0.013986,-0.361046,-0.526356,-0.494652,-0.268264,0.334339,0.735885,0.259676,0.066046,0.259425,0.855472,1.516664,0.647905,0.227901,-0.166835,-0.453022,-0.600575,-0.486076,-0.588189,-0.455070,-0.275219,-0.125537,0.015340,-0.019448,0.001689,-0.008319,-0.000909,-0.036697,-0.096841,-0.451438,-0.497379,-0.474854,-0.326022,0.768659,0.771831,0.326307,0.971615,1.134715,2.183604,2.106272,0.998340,0.533003,0.234762,-0.576125,-0.489106,-0.414151,-0.441689,-0.319734,-0.199515,-0.066002,-0.024651,-0.001387,-0.005094,-0.016738,-0.001504,-0.109531,-0.169926,-0.389786,-0.375839,-0.488007,-0.133806,0.620090,0.545850,0.015285,0.739500,1.785233,2.606739,1.762417,1.166083,0.710052,-0.290023,-0.915554,-0.754468,-0.614112,-0.440725,-0.285845,-0.094976,-0.047164,-0.035462,-0.002790,0.004428,0.021453,0.027170,-0.084694,-0.263761,-0.287085,-0.385177,-0.544329,-0.158209,0.187404,-0.012089,-0.515525,0.590689,1.292386,1.173507,0.860354,1.587694,0.244836,-1.114479,-1.578774,-1.096514,-0.695605,-0.371718,-0.239241,-0.068922,-0.049725,-0.009591,0.011748,-0.029387,0.018073,-0.008580,-0.022331,-0.046592,-0.274175,-0.500893,-0.743828,-0.616471,-0.349614,-0.380224,-0.073798,0.800792,0.500524,0.176021,0.662687,1.787100,-0.137611,-1.853758,-1.842889,-1.069109,-0.644328,-0.330437,-0.155427,-0.075604,-0.046572,0.032106,0.012638,-0.016040,-0.015813,0.000732,-0.010028,-0.055325,-0.242515,-0.702837,-0.842625,-0.849689,-0.559537,-0.475167,-0.330584,-0.002903,-0.164769,0.362443,0.925337,0.927125,-1.267914,-2.149385,-1.530903,-0.956858,-0.729274,-0.509514,-0.269087,-0.118040,-0.096307,-0.066152,0.010349,0.023268,-0.024276,-0.010324,-0.038134,-0.075264,-0.267846,-0.801806,-0.806126,-0.735347,-0.610377,-0.544577,-0.612514,0.074576,0.374550,0.726173,0.887469,-0.687244,-1.780280,-1.502232,-1.184287,-0.804164,-0.793745,-0.566193,-0.233732,-0.156254,-0.065764,-0.017503,-0.009202,0.029049,0.032671,-0.032848,-0.004360,-0.167434,-0.382870,-0.873486,-0.834562,-0.733849,-0.746282,-0.758815,-0.486098,-0.324156,-0.075311,0.744702,-0.189149,-1.516409,-1.399785,-1.403909,-1.024167,-0.739674,-0.655199,-0.510489,-0.130318,-0.055106,-0.019477,0.011836,0.022037,0.030059,-0.029742,-0.038993,-0.010205,-0.180334,-0.505211,-0.711895,-0.712588,-0.780490,-0.729744,-0.810195,-0.367882,-0.533180,-0.004620,0.407735,-0.545603,-0.664661,-0.768224,-1.110633,-1.015172,-0.730175,-0.587135,-0.567192,-0.198638,-0.009741,0.008550,0.024310,-0.009851,-0.017445,-0.004506,-0.088997,-0.103352,-0.134866,-0.536972,-0.629332,-0.796281,-0.818702,-0.729181,-0.201200,0.013559,-0.222078,-0.205251,0.152995,-0.365507,-0.282240,-0.093350,-0.471215,-0.654671,-0.525592,-0.394615,-0.324484,-0.212857,-0.120427,-0.044417,-0.034249,-0.006286,0.021580,0.021832,-0.029837,-0.107323,-0.124918,-0.266134,-0.422820,-0.655629,-0.797533,-0.630805,0.078896,-0.219061,-0.427817,-0.493353,0.098077,0.088609,-0.147441,0.387968,0.406012,0.115112,-0.210108,-0.243468,-0.369101,-0.123341,-0.036286,0.020606,-0.028364,-0.009233,0.013117,-0.027441,0.014325,-0.025827,-0.017747,-0.031394,0.000144,-0.081720,-0.170357,-0.571081,-0.444021,-0.994379,-1.258547,-1.177877,-0.063621,-0.753054,-0.143253,0.601875,0.685917,0.301542,-0.003222,-0.125386,-0.263122,-0.093065,-0.025018,-0.000861,0.021896,0.007669,0.002617,0.026833,-0.047742,-0.107669,-0.113611,0.237491,0.311728,0.167912,0.329095,-0.318982,-0.420735,-0.959133,-0.676168,-0.739748,-0.923354,-1.018496,-0.123886,0.510294,0.547866,0.174222,0.097854,0.077699,0.057129,0.064337,0.007161,-0.019946,-0.029288,0.030825,0.021553,0.023966,0.003077,-0.061196,-0.080090,-0.023202,-0.177758,-0.090591,-0.051118,-0.468043,-0.660478,-1.059316,-0.800144,-0.928846,-1.145612,-1.244961,-0.696219,0.229873,0.198117,0.101714,0.250215,0.218321,-0.004041,0.047740,-0.023284,-0.010000,-0.013117,0.024604,0.007088,-0.007261,0.022347,-0.005020,-0.124230,-0.099047,-0.071278,-0.128623,-0.044785,0.255647,-0.015379,-0.089568,-0.096038,-0.075214,-0.380119,-0.451152,-0.081217,0.503988,0.494521,0.227425,0.177703,0.118538,0.019182,0.022010,0.015451,-0.015881,0.008274,0.025360,0.011610,-0.038101,0.016883,-0.013062,0.015045,-0.009633,-0.003625,-0.024933,-0.057787,0.135936,-0.001624,-0.081372,0.045458,-0.061736,0.031772,-0.011443,0.144450,0.291826,0.095746,0.038853,0.016468,-0.002752,-0.036833,-0.032692,0.021326,-0.005355,-0.015961,-0.001838,0.017111,0.030661,-0.009559,-0.004360,0.030903,-0.026048,0.015267,-0.016820,0.010358,-0.000176,-0.027334,0.024035,0.003618,0.049383,-0.003289,0.020827,0.014216,-0.040279,0.035191,0.004135,0.014175,0.026986,0.026943,-0.011167,0.025264,-0.004578,-0.004458,0.013508
0.003368,-0.007117,-0.046457,-0.012603,-0.009538,-0.017669,-0.050044,-0.011714,-0.005080,0.007906,-0.053987,-0.019423,-0.019165,-0.043581,-0.028280,0.003593,-0.043454,-0.020779,-0.026493,-0.060259,-0.020236,-0.037883,-0.035880,-0.039281,-0.044572,-0.042385,-0.012101,-0.052390,-0.008616,-0.049640,-0.000536,-0.013284,0.006635,-0.055028,-0.033925,-0.011035,-0.009630,-0.020809,-0.031983,-0.029651,-0.019502,-0.021631,0.012728,0.059011,0.021522,-0.017959,-0.056779,-0.054034,-0.043838,-0.018959,-0.049565,0.000179,-0.061307,-0.021697,-0.047138,-0.042487,-0.000689,0.004153,-0.031485,-0.017341,-0.053451,-0.040463,-0.040782,-0.057146,-0.032958,-0.021395,-0.069057,-0.115056,-0.037527,-0.029320,0.095085,0.194982,0.087150,-0.019667,-0.056779,-0.031932,-0.052053,-0.064055,-0.005971,0.010525,-0.059986,-0.054190,-0.004191,-0.061257,-0.012476,-0.059365,-0.040346,-0.021265,-0.063782,-0.010772,-0.043992,-0.062446,-0.089061,-0.092591,-0.235302,-0.112606,0.156256,0.321506,0.421233,0.505397,0.430576,0.146061,0.080327,-0.074327,-0.159962,-0.217937,-0.082026,-0.024576,-0.025585,-0.051368,-0.059600,-0.052170,-0.052104,0.001092,-0.050042,-0.001073,0.009559,-0.041909,-0.022133,0.018802,-0.116950,-0.475291,-0.627847,-0.393389,0.029046,0.075179,0.496094,0.867917,0.609389,0.403695,0.294912,-0.165444,-0.460756,-0.257004,-0.269705,-0.246750,-0.137803,-0.077514,-0.007951,0.004927,-0.039029,-0.002477,-0.055211,-0.011262,-0.064738,-0.203240,-0.258870,-0.202821,-0.626780,-0.680808,-0.711868,-0.540427,-0.319663,-0.209367,0.254706,1.107037,1.115103,0.911148,0.783916,-0.141651,-0.364343,-0.302212,-0.395659,-0.594158,-0.233029,-0.108855,-0.006007,-0.026538,-0.062826,-0.018000,-0.004081,-0.082016,0.067174,-0.015222,-0.209395,-0.343190,-0.337444,-0.454250,-0.462954,-0.668920,-0.620827,-0.321410,-0.405570,0.715730,1.345593,1.145096,1.098808,0.348332,0.181980,-0.216512,-0.622399,-0.888383,-0.482215,-0.158168,-0.024196,-0.045184,-0.043829,0.015149,0.002482,-0.045677,0.066941,-0.026326,-0.231524,-0.091683,-0.010239,0.118111,-0.086816,-0.306655,-0.618108,-0.881192,-0.795493,-0.069609,0.553760,1.024746,0.646259,0.803647,0.002190,-0.631428,-0.935580,-1.177067,-0.616307,-0.181441,-0.039514,-0.058767,-0.048277,-0.017450,-0.048238,0.078475,-0.046697,-0.295350,-0.191854,-0.014244,0.191494,-0.070374,-0.140062,-0.853570,-1.465668,-2.233096,-1.849037,0.055154,0.718783,0.861526,1.126691,0.405188,-0.662953,-1.135650,-1.042954,-0.872602,-0.598172,-0.178445,-0.083752,-0.001668,-0.028140,0.008515,0.004817,0.028448,0.028209,-0.116913,-0.198857,-0.108296,-0.187869,-0.716106,-1.151674,-1.616444,-2.786642,-2.811481,-1.319657,1.056600,1.493791,0.991478,0.292737,-0.518129,-0.856154,-1.165686,-0.987554,-0.796155,-0.615868,-0.204984,-0.104598,-0.061713,-0.005525,-0.043062,0.012086,-0.066328,-0.087725,-0.329698,-0.854217,-0.870213,-1.428443,-1.651024,-2.000093,-2.462647,-2.909427,-1.329191,0.601139,1.937153,1.296560,0.477529,-0.032951,-0.700803,-1.282943,-1.110697,-1.046052,-0.766622,-0.405859,-0.150185,-0.007485,-0.044956,-0.012609,0.005532,-0.018613,-0.080342,-0.214602,-0.721236,-1.164303,-1.352797,-1.687128,-1.642035,-1.289635,-1.402817,-0.180215,1.205557,1.969825,1.941734,0.995724,-0.326769,-0.921193,-1.313304,-1.164247,-0.909091,-0.892979,-0.725141,-0.481211,-0.244995,0.002481,-0.044258,-0.034224,-0.008097,-0.026625,-0.143331,-0.265758,-0.587961,-1.036947,-0.713781,-0.484163,-0.378184,0.502627,0.737231,1.232805,1.098300,1.069182,0.258530,0.014780,-1.117491,-1.854705,-1.451431,-0.622291,-0.707819,-0.561202,-0.475955,-0.245406,-0.043246,-0.039811,-0.057227,-0.062067,-0.046186,-0.043207,-0.012041,-0.340363,-0.658996,-0.614529,-0.177809,0.679205,0.252578,0.766585,0.591747,0.631909,0.361691,0.157127,-0.563649,0.174151,-0.526270,-0.953656,-0.330888,0.090809,-0.006507,-0.248939,-0.278246,-0.180401,-0.032561,-0.016564,-0.054447,-0.001405,0.007555,-0.048859,0.014790,0.002600,-0.336309,-0.574831,0.245953,0.824573,0.839304,0.028530,-0.111380,-0.034910,-0.308744,-0.365367,-0.568292,-0.358087,-0.000438,0.429226,0.791381,0.809312,0.823301,0.095723,-0.149668,-0.100600,-0.068924,-0.020594,-0.036519,-0.023729,-0.031410,-0.010054,-0.038928,0.034964,0.019470,-0.114163,0.445017,0.243131,0.334441,-0.629709,-0.805822,-0.076000,-0.215584,0.104551,0.020030,-0.062090,-0.054224,0.853714,0.990307,0.948313,0.810142,0.355056,0.273703,0.016449,0.012249,-0.018197,-0.036723,0.004978,-0.035303,0.043989,-0.038952,-0.084918,-0.087795,0.089225,0.192427,0.055734,0.111794,-0.093792,-0.143539,-0.220321,-0.426105,0.011449,-0.176203,-0.184473,0.072991,0.820200,0.923740,0.832489,0.556343,0.590189,0.474699,0.190690,-0.006380,-0.060650,-0.008654,-0.009233,-0.047025,0.015834,0.009550,-0.116418,-0.145921,-0.243736,-0.471721,-0.554229,-0.627538,-0.810978,-0.412389,-0.279497,-0.348713,-0.145529,-0.438374,-0.036204,0.193188,0.040423,-0.031623,-0.047553,0.333551,0.774394,0.542788,-0.040290,-0.053078,-0.090232,-0.020051,-0.056443,-0.005197,0.026156,0.154491,-0.125075,-0.237930,-0.475727,-0.381509,-0.793260,-0.914567,-0.892259,-0.665534,-0.485052,-0.335456,-0.937668,-0.483892,0.118171,-0.164554,-0.496516,-0.642382,-0.192849,0.094916,0.487070,0.232712,-0.191941,-0.073648,-0.061685,-0.024962,-0.037730,-0.024655,0.002673,0.343796,0.006621,-0.171530,-0.302298,-0.278665,-0.971012,-1.220540,-1.425223,-1.502567,-1.338114,-1.315493,-1.462494,-0.637105,0.230263,0.134610,-0.544450,-0.784594,-0.449918,-0.641184,-0.240434,-0.235289,-0.236909,-0.055569,-0.064818,0.004007,-0.040134,-0.026305,0.052244,0.418855,0.351711,-0.042449,-0.099904,0.022610,-0.412238,-0.969210,-0.932519,-1.163550,-1.056551,-1.343786,-1.261187,-0.376804,0.038148,0.292163,-0.052706,-0.860308,-0.757095,-0.935820,-0.718431,-0.487259,-0.139211,-0.026064,-0.047757,0.001884,-0.021320,-0.019803,0.038423,0.235099,0.476622,0.191805,-0.034428,0.239516,0.302265,-0.032572,-0.192051,-0.211716,-0.281325,-0.428191,-0.701185,-0.266333,-0.136049,0.129678,0.106644,-0.422054,-0.729033,-0.835853,-0.677046,-0.343151,-0.047160,-0.021706,-0.024976,-0.015662,-0.053100,-0.005685,0.003112,0.112587,0.218696,0.208851,-0.039782,0.304065,0.397403,0.459920,0.094326,-0.273502,-0.352214,-0.268389,-0.391948,-0.482952,-0.569959,0.321892,0.213839,0.078701,-0.436263,-0.754759,-0.521437,-0.297442,-0.114802,-0.013083,-0.012362,-0.037710,-0.018053,0.006177,-0.039704,0.059998,0.124661,0.321177,0.001058,0.199166,0.194036,0.343627,0.066665,-0.320741,-0.470961,-0.392242,-0.732189,-0.946546,-0.323510,0.674511,0.656341,-0.009364,-0.462509,-0.712201,-0.460678,-0.206116,-0.054940,-0.022669,0.009654,-0.036730,-0.028509,-0.035157,-0.000715,0.018062,0.118655,0.122974,0.327636,0.520397,0.673784,0.285006,-0.342330,-0.545785,-0.257915,0.127379,-0.259333,-0.427277,0.139619,0.064972,0.141009,-0.294543,-0.544955,-0.491805,-0.212178,-0.021501,-0.066675,-0.061034,0.000336,-0.061519,-0.016165,-0.007865,-0.034816,-0.051800,0.042845,0.057775,0.074222,0.187637,0.511558,0.147795,-0.009522,0.240279,0.175124,0.171574,-0.296104,-0.352741,-0.613105,-0.793326,-0.535408,-0.267361,-0.382062,-0.426362,-0.193742,-0.062961,-0.043735,-0.056836,-0.003363,-0.031002,-0.054478,-0.011064,-0.029129,-0.008899,-0.041381,-0.017032,-0.015599,-0.036030,-0.084939,-0.222741,-0.305202,-0.200567,-0.340374,-0.231333,-0.423099,-0.314725,-0.145254,-0.260270,-0.242853,-0.126540,-0.272582,-0.261997,-0.047514,0.001979,-0.028313,-0.016109,0.003198,-0.008203,-0.009553,-0.008202,-0.047241,-0.000639,-0.027302,-0.012471,-0.019465,-0.073695,-0.029674,-0.021353,-0.014542,-0.022288,-0.021569,-0.017787,-0.091851,-0.060021,-0.005847,-0.018016,-0.103594,-0.088677,-0.029267,-0.006948,-0.025942,0.003025,-0.061225,0.006137,-0.003210,-0.026146
-0.008268,0.001691,-0.032645,-0.025857,-0.014547,-0.016495,-0.034531,-0.049884,-0.037508,0.012934,-0.048795,0.004274,-0.015633,0.001056,-0.024549,-0.029329,-0.004477,0.011228,-0.016979,-0.016349,-0.012435,-0.014500,-0.037100,-0.049361,-0.029974,0.000331,0.017055,-0.027807,-0.001568,0.005809,0.009439,-0.027612,-0.010275,-0.040981,0.000183,-0.042597,-0.003824,-0.052098,-0.039724,0.006543,0.014467,-0.039870,-0.016390,-0.028375,-0.053738,-0.051329,0.004366,-0.009482,-0.063297,-0.034740,-0.038081,-0.008837,0.009774,-0.019090,-0.004547,-0.037974,-0.036534,-0.005268,-0.012129,0.015550,-0.017234,-0.020465,-0.030006,-0.044979,-0.008224,-0.099533,0.003634,0.001912,-0.026291,-0.021875,-0.029445,-0.053172,-0.030292,-0.058764,-0.106516,-0.079933,-0.107993,-0.063978,-0.029868,-0.040505,-0.002699,0.001948,0.004751,-0.010636,-0.034918,-0.017571,0.005041,-0.017800,-0.040485,-0.023551,-0.019500,-0.008369,0.021934,0.073467,0.122105,0.140561,0.183023,0.168224,0.169441,0.040246,-0.152884,-0.253745,-0.326327,-0.371974,-0.281560,-0.074642,-0.028311,-0.043576,-0.018729,-0.008050,-0.022193,-0.003755,-0.023879,-0.035217,-0.032166,-0.005544,-0.007030,-0.042819,-0.020798,0.042147,0.082176,0.196237,0.218811,0.198345,0.181357,0.141345,0.219375,0.118942,0.163886,-0.023812,-0.379244,-0.606422,-0.490226,-0.373011,-0.254797,-0.091392,-0.034353,-0.004647,-0.037801,-0.053657,-0.042478,-0.006103,-0.003517,-0.011455,0.003049,-0.027858,0.056520,0.127086,0.214570,0.137830,0.185737,0.266109,0.080009,0.017068,0.150366,0.248534,0.409614,0.104092,-0.059362,-0.465638,-0.346334,-0.356877,-0.210157,-0.145972,-0.056023,0.029797,-0.007530,-0.006618,-0.034962,0.000924,-0.005295,-0.012898,-0.020765,0.070478,0.161876,0.229226,0.305599,0.101959,0.119678,0.104250,0.006251,-0.121541,-0.115654,-0.116556,-0.070685,-0.158531,-0.092600,-0.098334,-0.129411,-0.056695,0.018867,0.053823,0.005523,0.030137,-0.001780,-0.035610,0.017230,0.014348,-0.002355,-0.005510,0.018725,0.065255,0.118722,0.036980,0.125471,-0.060144,-0.078699,-0.023454,-0.131940,-0.226882,-0.410902,-0.438534,-0.409973,-0.161265,-0.179627,-0.062129,0.102604,0.009382,0.176400,0.223053,0.083505,0.082824,0.060461,-0.024691,0.015485,-0.028760,-0.031506,0.016734,0.002304,0.076828,-0.001365,-0.001466,-0.086180,-0.040706,0.011169,-0.247620,-0.424525,-0.476028,-0.404229,-0.332869,-0.425896,-0.208667,-0.165117,0.039698,0.056587,0.221558,0.382050,0.409589,0.134612,0.116042,0.048386,0.011033,-0.052605,0.002513,-0.047730,0.016108,-0.022766,0.018191,0.012909,-0.147968,-0.123096,-0.077573,-0.185839,-0.429087,-0.592506,-0.326717,-0.431438,-0.389717,-0.461136,-0.163064,-0.254026,-0.006258,0.103093,0.371039,0.445772,0.350711,0.299177,0.118576,-0.002276,-0.015499,-0.017533,-0.041982,-0.029316,-0.018226,-0.044969,-0.102673,-0.198289,-0.254998,-0.308196,-0.301937,-0.176365,-0.396520,-0.285896,-0.216776,-0.285446,-0.431658,-0.404762,-0.201899,-0.328072,-0.058678,0.299838,0.320790,0.336426,0.186103,0.175940,0.101390,0.039647,0.005951,-0.019674,-0.037141,-0.032527,-0.013640,-0.062034,-0.183650,-0.329802,-0.483093,-0.530031,-0.566919,-0.185383,-0.064723,-0.083006,-0.114461,-0.328640,-0.528483,-0.404232,-0.488115,-0.254533,0.150627,0.330444,0.174977,0.081979,-0.034605,0.013721,0.085562,0.009442,-0.015521,0.010348,-0.029456,-0.028998,-0.067122,-0.051380,-0.256959,-0.470573,-0.610700,-0.528508,-0.508127,-0.274801,0.065357,0.126178,-0.027525,-0.366684,-0.715938,-0.692165,-0.649140,-0.115823,0.142250,0.185890,0.040833,-0.067501,-0.087736,-0.095433,-0.021112,0.031977,-0.044813,0.005408,-0.033638,-0.007850,-0.014275,-0.060156,-0.307993,-0.447881,-0.472287,-0.328634,-0.559084,-0.373066,0.023141,0.039529,-0.168201,-0.644837,-0.946228,-0.887396,-0.617959,-0.210256,-0.071828,0.017508,-0.110633,-0.219833,-0.261061,-0.157728,-0.007615,-0.014571,0.002917,-0.048583,-0.026290,0.010950,-0.003781,-0.069520,-0.335158,-0.390944,-0.436352,-0.373525,-0.362092,-0.362718,-0.021828,-0.016395,-0.218052,-0.781286,-0.986997,-0.939335,-0.932208,-0.563568,-0.396845,-0.386158,-0.454652,-0.489626,-0.372325,-0.115328,-0.044352,-0.048401,0.000517,-0.036373,-0.008478,-0.016534,-0.026973,-0.099221,-0.297692,-0.325627,-0.390416,-0.495840,-0.412211,-0.326949,0.102713,-0.012938,-0.209360,-0.646754,-0.694437,-0.785697,-0.989295,-0.679237,-0.297899,-0.324229,-0.356106,-0.425215,-0.354940,-0.094516,-0.010771,-0.011559,0.003698,0.012290,-0.008672,-0.030781,-0.072261,-0.045611,-0.166578,-0.285591,-0.414490,-0.591177,-0.471492,-0.238203,-0.122091,-0.079942,-0.194049,-0.547348,-0.391073,-0.471634,-0.648470,-0.416802,-0.220829,-0.059218,-0.141822,-0.310539,-0.261541,-0.076749,0.023467,-0.044645,-0.007402,-0.040042,-0.012530,-0.055792,-0.084609,0.039977,-0.072847,-0.145048,-0.262160,-0.416562,-0.297686,-0.179636,-0.224000,-0.299373,-0.288753,-0.423738,-0.084480,-0.025264,-0.497642,-0.427948,-0.206679,0.009137,0.034881,-0.122253,-0.226020,-0.034192,-0.000946,-0.020476,-0.014996,-0.035345,0.006829,-0.063550,-0.047854,0.087833,0.087579,0.174598,0.155261,-0.034961,-0.070374,-0.273952,-0.356202,-0.264826,-0.071329,-0.132853,0.209242,0.115101,-0.363935,-0.293280,-0.166106,-0.053682,0.018480,0.004044,0.128403,0.139314,0.008250,0.000249,-0.017422,-0.053337,-0.004282,-0.042506,-0.039114,0.164575,0.188397,0.313988,0.553471,0.476803,0.232399,-0.077377,0.071022,-0.076007,-0.002380,-0.010979,0.090808,-0.267694,-0.417321,-0.354781,-0.348948,-0.162659,0.017617,0.012929,0.145812,0.166961,0.015956,-0.017671,-0.011289,-0.039894,-0.028420,-0.024837,-0.027633,0.107644,0.219470,0.262393,0.461132,0.420732,0.129425,-0.078544,-0.076943,0.024335,0.025586,-0.175975,-0.251994,-0.194071,-0.307379,-0.393164,-0.184007,0.074770,0.065257,0.046881,0.171529,0.161436,0.030771,0.017771,-0.015708,-0.009402,-0.028693,-0.025028,0.008507,0.016993,0.022497,0.166193,0.143549,0.061438,-0.103331,-0.282591,-0.114571,0.063914,0.043509,-0.111798,-0.413188,-0.366890,-0.255711,-0.130928,0.158889,0.088711,0.302624,0.132967,0.134092,0.115797,0.022472,-0.006864,-0.011913,-0.022456,-0.032249,-0.036497,-0.039411,0.023015,-0.038284,0.175587,-0.007578,-0.148961,-0.261896,-0.234812,0.069726,0.210410,0.188633,-0.107067,-0.251087,-0.313387,-0.009259,0.076862,0.171726,0.135933,0.182048,0.110190,0.055311,0.010053,-0.010713,-0.016996,-0.029300,-0.053570,0.000723,0.012698,-0.019074,0.007454,-0.034208,0.043255,0.112979,-0.065229,-0.169692,-0.038572,0.131215,0.237429,0.165454,0.247416,0.175110,0.100629,0.039963,0.038187,0.036373,-0.053513,0.061550,0.038380,0.005106,-0.035806,-0.014878,-0.010670,0.000001,0.011669,0.013216,-0.048074,0.018201,0.001296,-0.190291,-0.103507,-0.049603,-0.078835,0.004795,-0.056579,-0.025393,-0.004785,0.178811,0.234452,0.076646,0.049949,-0.057935,-0.035425,-0.042562,0.026862,-0.018597,-0.043201,-0.064147,-0.042762,-0.001762,-0.020045,-0.021474,-0.034697,-0.048858,-0.039248,-0.056704,-0.138292,-0.115957,-0.128336,-0.150501,-0.231655,-0.174119,-0.184531,-0.183371,-0.110886,-0.122289,-0.147875,-0.168180,-0.159792,-0.147882,-0.042476,-0.066844,-0.074206,-0.023706,-0.014202,-0.029033,-0.022481,0.016792,0.013426,0.002565,-0.002835,-0.024395,-0.036685,0.014700,-0.032302,-0.039347,-0.079695,-0.080342,-0.074194,-0.115694,-0.102277,-0.116076,-0.068951,-0.076844,-0.126730,-0.063136,-0.067360,-0.070598,-0.044777,-0.078304,-0.031415,-0.040741,-0.038907,-0.000184,-0.021173,0.009067,-0.010173,-0.050593,0.008083,-0.014522,0.005623,-0.012527,0.014736,-0.050483,-0.019673,-0.033717,-0.026395,-0.003196,0.011367,-0.038425,0.011229,-0.052210,-0.036156,-0.009512,-0.005741,-0.006614,-0.017031,-0.037207,0.008826,-0.056587,-0.037540,-0.029639,-0.008762,-0.008933,-0.048853,-0.047710
-0.031665,-0.019397,-0.058675,-0.041357,-0.051694,0.000601,-0.000232,-0.054734,-0.066012,-0.032189,-0.023723,-0.029827,-0.052945,-0.029707,-0.012570,-0.055694,-0.023076,-0.063885,-0.008356,-0.042026,-0.013786,-0.032577,-0.020180,-0.021164,-0.020721,-0.066162,0.002862,-0.047258,-0.021443,-0.063767,-0.041316,-0.056861,-0.015489,-0.032316,-0.030543,0.000495,-0.035343,-0.034473,-0.058176,-0.033901,0.001027,-0.018617,-0.078578,-0.063891,-0.050045,-0.013898,-0.043752,-0.003037,-0.008646,-0.055863,-0.048813,-0.026178,-0.020782,-0.001333,-0.051093,-0.045255,0.000180,-0.051983,-0.024838,-0.025017,-0.048075,0.001521,-0.014202,-0.067229,-0.034654,-0.055633,-0.014018,-0.004125,0.001888,-0.027125,-0.026893,-0.035013,-0.038054,-0.079355,-0.019232,-0.059467,-0.057498,-0.053938,-0.065521,0.004148,-0.041538,-0.046619,-0.026679,-0.066478,-0.051706,-0.010097,-0.044058,-0.055280,-0.065860,-0.001769,-0.010780,-0.046278,0.009471,-0.004590,-0.039577,-0.036569,-0.020402,0.005671,-0.033039,-0.077539,-0.101637,-0.080853,-0.139970,-0.153477,-0.119275,-0.076119,-0.054671,-0.050553,-0.048296,-0.041797,-0.052049,-0.022703,-0.020744,-0.011053,-0.021506,-0.005018,-0.027073,0.003664,-0.057541,-0.040710,-0.046043,-0.159828,-0.297537,-0.294446,-0.269874,-0.180641,-0.328540,-0.340301,-0.384835,-0.437540,-0.422566,-0.461930,-0.505664,-0.304773,-0.240644,-0.125828,-0.025022,-0.041266,-0.039216,-0.052684,-0.013893,-0.023576,-0.008042,-0.035024,-0.034185,-0.052782,-0.048779,-0.038458,-0.164151,-0.061001,-0.070372,-0.165601,-0.242239,-0.401976,-0.368154,-0.228864,-0.200800,-0.436052,-0.620543,-0.831820,-0.805817,-0.697713,-0.556660,-0.271005,-0.155567,-0.058763,-0.056245,-0.060131,-0.025747,-0.033501,-0.046680,-0.026350,0.029197,0.061003,0.301252,0.327229,0.263640,0.475919,0.753977,0.613876,0.143159,-0.806494,-0.552773,0.072114,0.128506,0.075802,-0.010479,-0.226804,0.001440,-0.162221,-0.060075,-0.284226,-0.243411,-0.034670,-0.017854,-0.047501,-0.059648,-0.001474,-0.059569,-0.001557,-0.036918,0.239858,0.663395,0.691500,0.464322,0.933504,1.160511,0.823011,0.934384,0.536274,0.377025,0.215557,0.583583,0.666273,0.404717,0.038963,-0.106918,-0.106904,-0.151342,-0.237279,-0.197690,-0.085569,-0.048632,-0.019529,-0.037704,-0.053014,-0.044787,-0.048855,-0.005873,0.103099,0.447062,0.760235,0.779942,0.824050,0.822556,1.214182,1.229981,1.281433,1.551114,0.517124,-0.190146,-0.187247,-0.088826,-0.149257,-0.399393,-0.039408,-0.021441,0.001078,-0.204493,-0.170569,-0.062854,-0.051230,-0.017202,0.005113,-0.000989,-0.004766,-0.239169,-0.494778,-0.224302,0.205378,0.607422,0.539383,0.317588,0.492661,0.636080,0.445463,0.456089,-0.208586,-0.635138,-0.546453,-0.482900,-0.190485,-0.585096,-0.225322,0.172511,0.010054,-0.237631,-0.102725,-0.027149,-0.011506,-0.019497,-0.040854,0.016662,0.000523,-0.370126,-0.859717,-0.551260,-0.233836,-0.103774,-0.621694,-0.826905,-1.254567,-1.493666,-1.176449,-1.161851,-0.701464,-0.524670,-0.365547,-0.139623,-0.680637,-0.646449,-0.110244,-0.065887,-0.173501,-0.158031,-0.046100,-0.012559,-0.030071,-0.049291,-0.018410,-0.044014,-0.044632,-0.503450,-0.824228,-0.612356,-0.592483,-1.385969,-2.110704,-1.986282,-2.270817,-2.004458,-1.764667,-0.862858,-0.363930,-0.113094,-0.268648,-0.503838,-0.811694,-0.724873,-0.539577,-0.288558,-0.271902,-0.206867,-0.068537,-0.090645,-0.045230,-0.046488,-0.063512,-0.003232,-0.159302,-0.454527,-0.796243,-0.852521,-1.106469,-1.784210,-2.532553,-2.397251,-2.149795,-1.558111,-1.267563,-0.682200,0.287112,0.379351,-0.351437,-0.804232,-0.612565,-0.545843,-0.566139,-0.173772,-0.116842,-0.165803,-0.018834,-0.054768,-0.001702,-0.055946,-0.040393,-0.031163,-0.202080,-0.534740,-1.024675,-1.243388,-1.621487,-1.971559,-2.155207,-1.894631,-1.064302,-0.137850,0.055168,0.059343,0.431949,0.325774,-0.535537,-0.601741,-0.286663,-0.286458,-0.102848,-0.054225,0.034245,0.012648,0.052264,-0.034794,-0.031278,-0.041630,-0.031593,0.007259,-0.204360,-0.463906,-0.941681,-1.262751,-1.464689,-1.184846,-0.944684,-0.676573,0.441003,1.288261,0.579328,0.062814,0.319384,0.255462,-0.080517,0.122230,0.443591,0.254542,0.275587,0.063257,0.136901,0.153458,0.146011,-0.036391,-0.046643,-0.031822,-0.040283,-0.048377,-0.134381,-0.382035,-0.777135,-1.084467,-0.848644,-0.374835,0.197017,0.388930,0.504628,0.519011,0.068174,0.154491,0.670671,0.329530,-0.054759,0.560253,0.302080,0.419571,0.779134,0.328633,0.211262,0.198259,0.106311,0.008783,-0.026987,0.003216,-0.006998,-0.002525,-0.100838,-0.261073,-0.535192,-0.643377,-0.349829,0.108406,0.522776,0.601493,0.182395,0.013139,-0.285060,0.048625,0.516443,0.044002,-0.318593,0.179746,0.529364,0.588014,0.624101,0.182019,-0.127955,-0.036438,-0.059836,-0.049716,-0.073530,-0.043117,-0.050861,-0.022022,-0.049422,-0.041514,-0.274153,-0.416722,-0.392974,0.217203,0.644357,0.673335,0.544018,-0.008723,-0.212632,0.436236,0.402110,-0.405494,-0.443830,-0.143328,-0.189795,-0.206487,-0.173382,-0.388452,-0.463391,-0.265277,-0.161614,-0.076996,-0.050401,-0.051726,-0.064030,-0.028100,-0.027117,-0.012184,-0.130127,-0.249642,-0.037566,-0.041440,0.138204,-0.079711,0.238353,0.078498,-0.191299,-0.080697,-0.048780,-0.475265,-0.339667,-0.572783,-0.818814,-0.800104,-0.654228,-0.610095,-0.621137,-0.446658,-0.123031,-0.028479,-0.052429,-0.043916,-0.050402,-0.049377,-0.063718,0.042638,-0.193549,-0.470660,-0.219805,-0.163502,-0.403102,-0.570137,-0.782253,-0.682246,-0.353048,-0.059847,-0.150485,-0.860968,-0.989171,-1.113657,-1.084392,-0.962777,-0.853241,-0.661811,-0.507580,-0.310456,-0.121240,-0.032320,-0.003286,-0.048234,-0.067339,-0.089275,-0.078868,-0.035637,-0.257743,-0.738980,-0.669239,-0.469846,-0.406532,-0.566408,-0.573390,-0.287949,-0.249029,-0.230688,-0.723325,-1.475272,-1.317573,-1.259949,-0.809969,-0.756859,-0.660254,-0.643179,-0.479893,-0.174169,-0.079620,-0.016157,0.003343,-0.052420,-0.060295,-0.001982,-0.062025,-0.051430,-0.262738,-0.526870,-0.685033,-0.389958,-0.538721,-0.369510,-0.101870,0.207051,-0.486827,-0.382794,-0.719767,-1.150727,-1.004897,-0.652311,-0.489971,-0.373753,-0.328036,-0.494195,-0.522670,-0.168742,-0.082143,-0.042415,-0.008008,-0.037096,-0.062195,-0.002889,-0.065814,-0.015899,-0.062588,-0.229859,-0.142727,-0.321065,-0.337654,-0.262935,-0.106988,0.119332,-0.131869,-0.167545,-0.527970,-0.313551,-0.308668,-0.366729,-0.243501,-0.202111,-0.244676,-0.336343,-0.390163,-0.154189,-0.042882,-0.044499,-0.037552,-0.061052,-0.012287,-0.044147,-0.041772,0.123887,0.079533,0.368109,0.501731,0.009576,-0.100281,-0.310186,-0.292057,-0.019665,0.164152,0.159358,0.349617,0.318015,-0.117839,-0.099391,-0.058932,-0.096660,-0.175747,-0.186112,-0.307509,-0.086703,-0.011965,-0.028595,-0.066011,-0.018764,0.000657,0.001381,0.058831,0.340802,0.571690,0.640354,0.679054,0.532957,0.197798,-0.427987,-0.093572,-0.048730,0.414427,0.345634,0.075697,-0.039266,0.196939,-0.250135,-0.173045,-0.149157,-0.304242,-0.149978,-0.215630,-0.120410,-0.028745,-0.062037,-0.022451,-0.042133,-0.021657,-0.042503,-0.050222,0.229243,0.252270,0.241857,0.389930,0.391892,0.338850,-0.102170,0.001577,0.193524,0.555986,0.467547,0.240335,0.040831,-0.002226,-0.300185,-0.265421,-0.288927,-0.280074,-0.139647,-0.118911,-0.074677,-0.047146,-0.027309,-0.061799,-0.009429,-0.022666,-0.016575,-0.056294,-0.044219,-0.189931,-0.153847,0.096154,-0.036144,-0.296184,-0.242477,-0.057976,-0.157995,0.005310,-0.103784,-0.008822,0.145533,0.086707,-0.140512,-0.183775,-0.137091,-0.144212,-0.063957,-0.018019,-0.033796,-0.035025,-0.024510,-0.031004,-0.014880,-0.056089,-0.025127,-0.028061,-0.011079,-0.041929,-0.012105,-0.057842,-0.016743,-0.009323,-0.012981,-0.066170,-0.018508,-0.057402,-0.052917,-0.060994,-0.037786,-0.035865,-0.012686,-0.004826,-0.040208,-0.006807,-0.131909,-0.000419,-0.026464,-0.066696,-0.021842,-0.064013
-0.008270,-0.024328,-0.001565,-0.026902,-0.012742,-0.030445,0.012712,-0.027575,-0.008225,-0.006741,-0.022808,-0.030873,-0.010809,-0.026947,-0.019714,-0.012359,-0.016205,0.011223,-0.002951,0.003530,-0.038582,-0.012656,-0.000306,-0.011179,-0.017916,0.010861,-0.015352,0.023295,0.011840,-0.040946,0.026957,-0.025960,-0.023375,-0.004138,-0.010963,0.005782,0.007316,-0.027781,0.020494,-0.028038,0.007380,-0.033961,-0.021037,-0.029825,-0.018900,0.003320,-0.003311,0.008551,-0.015226,-0.035673,-0.017470,-0.012218,-0.006660,0.024006,0.018501,0.017322,0.005337,-0.026380,0.011087,-0.012353,-0.025625,0.008495,0.003592,-0.006902,-0.025479,-0.038457,-0.028567,0.030365,-0.027058,-0.054172,-0.053328,0.000648,-0.080481,-0.044560,-0.055034,0.006515,-0.054164,-0.019638,-0.034536,-0.013355,0.008496,-0.002599,0.015865,-0.027725,-0.008123,0.004836,-0.039932,-0.032315,0.020314,0.012868,-0.004493,-0.040527,-0.035635,-0.102952,-0.133198,-0.214351,-0.310858,-0.261979,-0.168366,-0.132562,-0.157658,-0.140280,-0.222772,-0.185530,-0.193313,-0.104764,-0.077983,-0.015893,-0.006089,0.004554,-0.003841,0.021537,-0.027520,-0.017507,-0.035718,0.005916,0.021195,-0.118021,-0.130615,-0.267272,-0.479494,-0.369974,-0.294412,-0.116923,-0.252050,-0.340640,-0.115836,-0.088274,0.030216,0.141694,-0.323871,-0.360433,-0.242537,-0.006435,-0.050842,0.088948,0.055952,0.007891,0.003498,-0.003227,-0.033745,-0.027188,-0.011761,-0.051063,-0.175354,-0.368255,-0.577313,-0.793712,-0.510743,-0.303509,-0.122710,-0.010275,0.005307,0.024424,0.317571,0.065062,0.108757,0.465941,0.420390,0.174793,0.167164,0.350737,0.283713,0.215142,0.064301,0.019934,0.003984,0.026829,0.016903,-0.022925,-0.016953,-0.051207,-0.283435,-0.384988,-0.597616,-0.579271,-0.456372,-0.093875,0.050315,0.026788,0.159563,0.369507,0.569768,0.155468,0.151533,0.102483,-0.043907,-0.116432,0.107390,0.086184,0.344690,0.328803,0.256308,0.091729,0.024330,-0.008203,-0.024359,0.007799,-0.010546,-0.146966,-0.235023,-0.339749,-0.189283,-0.105422,-0.224348,-0.057678,0.331527,0.323782,0.466143,0.773374,0.564067,0.438350,0.699024,0.599128,0.472375,0.335695,0.385027,-0.164037,0.031662,0.504764,0.369130,0.121345,0.018356,-0.038641,-0.037024,-0.018215,0.009497,-0.170704,-0.324539,-0.182855,-0.185771,-0.110698,0.032653,-0.155730,0.114940,0.552038,0.571264,0.327153,0.335151,0.002791,-0.231900,-0.056646,-0.198160,-0.164865,-0.259052,-0.607319,-0.578048,-0.057972,0.146478,0.175294,0.057722,-0.035166,-0.039018,-0.039221,-0.035640,-0.148427,-0.220287,-0.193942,-0.310442,-0.243252,-0.257355,-0.423252,-0.083182,0.716404,0.355373,-0.255859,-0.682334,-0.948232,-1.037689,-0.612730,-0.980216,-0.804206,-0.968644,-1.006012,-1.100550,-0.602648,-0.153531,0.030088,0.069733,-0.030383,-0.003702,0.012682,-0.033188,-0.058305,-0.188861,-0.219981,-0.046731,-0.032828,0.147138,0.249558,0.010772,0.542411,0.229073,-0.499259,-1.245270,-1.376649,-1.482957,-1.163321,-1.031628,-1.007409,-0.904602,-1.172083,-1.181252,-0.653451,-0.251714,-0.023235,0.030558,0.014238,-0.034862,-0.008192,-0.001993,-0.040814,-0.232839,-0.146279,0.090483,0.170199,0.449367,0.473041,-0.025100,0.508804,0.023081,-0.810734,-1.544585,-1.266226,-1.343681,-0.917713,-0.593178,-0.634135,-0.665210,-1.127227,-0.983755,-0.480526,-0.157160,-0.020789,0.027480,-0.003663,-0.029997,-0.011991,-0.062040,-0.054829,-0.189227,-0.203508,0.196446,0.341968,0.435545,0.169982,0.300523,0.248706,-0.045959,-0.912083,-1.548569,-1.642273,-1.453413,-0.885088,-0.454851,-0.523520,-0.444112,-0.802191,-0.718025,-0.311367,-0.141522,-0.008327,-0.038821,-0.001051,0.009512,-0.033517,0.017996,-0.016857,-0.148234,-0.134075,0.047645,0.372493,0.553311,0.431625,0.304843,0.523877,0.080142,-0.628101,-1.227960,-1.782787,-1.904020,-1.744716,-0.890526,-0.600210,-0.492353,-0.379442,-0.350574,-0.047794,-0.087480,-0.028170,-0.028345,0.005293,-0.013634,-0.013039,-0.027914,-0.062872,0.009753,-0.038980,-0.204112,0.073506,0.493058,0.563498,0.416267,-0.215520,-0.390911,-0.576935,-0.862849,-1.080802,-1.284233,-1.479952,-1.123755,-0.727658,-0.651656,-0.426018,0.123531,0.107031,0.023786,0.020406,0.003445,-0.000677,-0.022817,0.017970,-0.024276,0.009219,0.082032,0.241951,-0.125520,-0.097272,-0.036717,0.210175,0.100240,-0.389330,-0.776198,-0.906235,-0.848198,-1.058154,-0.842578,-0.675505,-0.879089,-1.140355,-0.978554,-0.634584,-0.126232,0.148570,0.179095,-0.027407,-0.035992,-0.016752,-0.027934,0.017776,0.004970,-0.018607,0.142500,0.248778,-0.228746,-0.265547,-0.208876,-0.099345,-0.291732,-0.487664,-0.834435,-0.805972,-0.836151,-0.852214,-0.885984,-0.587787,-0.405535,-0.689944,-0.969584,-0.546814,-0.284676,0.066776,0.164473,-0.010849,0.023246,0.023147,0.027744,-0.029158,-0.058722,-0.176896,-0.114079,0.011828,-0.215738,-0.447482,-0.391729,-0.383898,-0.371785,-0.333216,-0.818642,-1.026713,-0.799135,-0.724032,-0.686272,-0.668003,-0.001583,-0.201566,-0.539285,-0.260283,-0.261189,-0.000378,0.063423,-0.107768,0.015488,-0.030884,0.004571,0.020617,-0.052682,-0.226765,-0.340439,-0.156797,-0.197518,-0.495079,-0.662528,-0.791882,-0.855516,-0.706928,-1.039724,-1.029440,-0.634926,-0.417104,-0.499854,-0.189291,0.065379,0.074507,0.050882,-0.216473,-0.209245,0.123891,-0.063130,-0.102360,0.010196,0.009920,-0.017282,0.008967,0.049498,-0.130169,-0.352502,-0.337601,-0.264592,-0.244325,-0.535415,-0.588154,-0.659905,-0.591877,-0.891461,-0.903990,-0.688477,-0.442222,-0.281587,-0.497459,0.094293,0.001938,0.168619,-0.222196,0.184079,0.151102,-0.126210,-0.084154,0.015424,-0.040553,-0.005230,0.014023,0.024535,-0.118598,-0.293837,-0.332987,-0.391865,-0.247838,-0.204305,-0.384299,-0.133034,-0.246041,-0.462631,-0.482601,-0.450145,-0.172787,-0.280481,-0.740663,-0.358649,0.087845,0.318211,-0.089140,0.266783,0.056698,-0.072094,-0.030420,-0.014840,0.025604,-0.011217,-0.017103,0.018422,-0.074338,-0.265563,-0.197833,-0.391807,-0.488390,0.157868,0.043822,0.236726,0.223160,-0.090273,-0.233116,0.008366,-0.115615,-0.296368,-0.392492,0.191121,0.601468,0.388709,0.090454,0.075665,0.089639,-0.038622,0.010382,0.020044,0.022968,0.028756,-0.025713,0.013402,-0.060226,-0.056119,-0.068264,-0.227522,-0.378568,-0.142636,0.177561,0.018773,0.289531,0.047233,0.011936,0.108712,0.055670,0.057653,-0.181429,0.408672,0.410307,0.037871,-0.041804,0.219736,0.056573,-0.067723,-0.003552,-0.032913,-0.010732,-0.015851,0.026616,-0.017382,-0.034718,-0.112325,-0.071301,0.041125,-0.262269,-0.320697,-0.217786,-0.205373,-0.061294,0.190672,0.222574,0.053498,0.220814,0.032870,-0.073930,0.150808,0.042679,0.123421,0.244093,0.221322,0.062673,-0.056567,0.005748,-0.022152,0.029170,-0.016417,-0.012919,-0.010931,-0.019114,-0.122876,-0.094705,-0.182256,-0.352383,-0.260900,-0.395128,-0.385756,0.008574,0.199060,0.062399,0.211696,0.196240,0.086376,0.223963,0.190036,0.293977,0.417785,0.198596,0.100266,0.021523,-0.010790,-0.018276,0.017413,-0.026576,-0.035278,-0.033541,-0.026936,-0.009949,-0.014700,-0.008095,-0.057224,-0.210116,-0.220263,-0.126941,-0.016327,0.039999,-0.106459,-0.007422,-0.095301,0.072328,0.119081,0.160072,0.181649,0.206559,0.065150,0.008322,-0.009570,-0.041383,-0.027889,-0.027243,0.022646,0.005749,-0.002378,0.010529,0.021072,0.004493,0.022549,-0.026266,-0.021598,0.000391,0.025470,-0.005485,0.027519,-0.024471,-0.089350,-0.010301,0.066810,0.071384,0.029637,0.068343,0.155174,0.151946,-0.013691,-0.037890,-0.034333,0.006182,0.013957,-0.001601,0.007535,0.027929,0.013055,0.000651,0.004147,-0.018853,-0.018350,-0.005419,0.025891,-0.028649,0.002434,-0.039635,-0.004882,-0.026313,-0.046217,-0.009072,-0.017136,0.006054,-0.005970,-0.042064,-0.011103,0.027291,0.020766,-0.024317,0.030202,-0.019067,-0.030000,-0.041664,0.029408,0.025856
-0.022091,-0.013312,0.003529,-0.038566,-0.042191,-0.021854,-0.015520,-0.018642,-0.055695,-0.017761,-0.005737,-0.011603,-0.014938,-0.041402,-0.057967,-0.061023,-0.050734,-0.021725,-0.000838,-0.013925,-0.018506,-0.040215,-0.016500,-0.027666,-0.030890,-0.021029,-0.004834,-0.018991,-0.020794,-0.004956,-0.022666,-0.051690,-0.027073,-0.027942,-0.027635,-0.006650,-0.058653,-0.051971,-0.034720,-0.055597,-0.009943,-0.054451,-0.005814,-0.039332,-0.042928,-0.009378,-0.029723,-0.015179,-0.029587,-0.037577,-0.034519,-0.053835,-0.014721,-0.059718,-0.018878,-0.054415,-0.018123,-0.032516,-0.010783,-0.047722,-0.046277,-0.042253,-0.036877,-0.008904,-0.029113,-0.131659,-0.149290,-0.057243,-0.106526,-0.036506,-0.027561,-0.085811,-0.137899,-0.054848,-0.086547,-0.045842,-0.048261,-0.041606,-0.048648,-0.038703,-0.054182,-0.008296,-0.033393,-0.007819,-0.005390,-0.061075,0.000389,-0.037468,-0.034966,-0.017072,-0.020200,-0.031565,-0.106778,-0.121371,-0.116001,0.060095,0.154776,0.108153,0.028546,0.008199,0.111665,-0.031713,-0.301794,-0.376632,-0.269781,-0.171778,-0.116456,-0.080063,-0.019128,0.004713,-0.035029,-0.011951,-0.012388,-0.005799,-0.028575,-0.029892,-0.000916,-0.075328,-0.036461,-0.049386,0.111297,0.251122,0.515913,0.602069,0.553841,0.389049,0.342676,0.209082,-0.007083,-0.143706,-0.502165,-0.615586,-0.471898,-0.416329,-0.338907,-0.148897,-0.021484,-0.024604,0.002059,-0.036858,-0.026684,-0.041775,-0.058303,-0.037535,-0.031386,-0.061357,-0.023752,0.115068,0.278457,0.311513,0.308179,0.163039,0.110039,0.403215,0.010501,-0.455347,-0.508487,-0.366205,-0.522268,-0.765145,-0.580755,-0.500103,-0.581145,-0.405023,-0.173032,-0.062953,-0.028270,-0.060280,-0.043244,-0.029180,-0.054906,0.037891,0.075787,0.012205,0.009888,0.082566,0.259742,0.329430,0.009728,0.009089,0.252252,0.827211,0.643324,0.081207,-0.002758,0.137929,0.111671,-0.235749,-0.237134,-0.341073,-0.512882,-0.622457,-0.369627,-0.157164,-0.032632,-0.066646,-0.023310,-0.036522,-0.073538,0.037139,0.073596,0.011569,-0.017858,-0.021812,-0.141241,-0.070403,-0.124009,-0.038202,0.032841,0.239551,0.423318,0.182091,0.021318,0.098512,0.167068,0.152572,-0.037924,-0.329545,-0.301069,-0.734866,-0.537963,-0.218973,-0.108734,-0.015566,-0.025215,-0.000796,-0.019098,-0.013785,0.045865,-0.105521,-0.153153,-0.351247,-0.799744,-0.565570,-0.399375,-0.322458,-0.504142,-0.365224,-0.005709,0.162634,0.200436,0.207451,0.588974,0.183294,-0.285574,-0.577438,-0.555225,-0.806733,-0.708366,-0.271197,-0.036332,-0.041270,-0.001896,-0.008288,-0.064557,-0.019688,-0.044111,-0.344091,-0.500880,-0.645543,-1.047625,-0.806669,-0.842864,-0.985142,-0.773251,-0.498658,-0.201299,0.213833,0.313957,0.474273,0.598356,0.277869,0.058686,-0.300690,-0.565724,-0.628785,-0.576116,-0.238083,-0.022561,-0.011411,-0.019936,-0.022713,-0.056467,-0.035120,-0.163139,-0.406373,-0.599956,-0.856445,-1.173311,-1.172962,-1.333518,-0.730388,-0.618836,-0.609420,-0.360803,-0.230659,0.275769,0.690377,0.571082,0.437009,0.192096,-0.085991,-0.400795,-0.489699,-0.352329,-0.228114,-0.036764,-0.057967,-0.053863,-0.022011,-0.010041,-0.008750,-0.128952,-0.249825,-0.662115,-0.708225,-0.941689,-1.152458,-0.759704,-0.616956,-0.453299,-0.071307,-0.226483,-0.489744,-0.183238,0.697030,0.615430,0.684913,0.411556,-0.179554,-0.364875,-0.415586,-0.493167,-0.282127,-0.053976,-0.054615,-0.005748,0.007383,-0.055512,-0.008430,0.031105,-0.213990,-0.514464,-0.494923,-0.483070,-0.538256,-0.385850,-0.424253,-0.268291,-0.328542,-0.470494,-0.688488,-0.545627,0.018889,0.310450,0.369398,0.087902,-0.470232,-0.296749,-0.319272,-0.309931,-0.159077,0.004361,-0.042212,-0.037156,-0.043181,-0.036872,-0.013805,0.097047,-0.106921,-0.452777,-0.212765,-0.316373,-0.037067,0.050480,-0.264276,-0.263521,-0.130647,-0.672872,-1.104892,-0.761073,0.017588,0.286016,0.275321,-0.328255,-0.528671,-0.476045,-0.425324,-0.288550,-0.066449,-0.009399,-0.019764,-0.047186,-0.016150,0.000487,0.016111,0.188383,0.045098,-0.138683,0.011465,0.038197,0.087771,-0.010880,-0.301111,-0.347287,-0.408988,-0.584617,-0.846259,-0.277204,0.156244,0.526284,0.311629,-0.157544,-0.386301,-0.712675,-0.485342,-0.304271,-0.077055,-0.020468,-0.012727,0.007144,-0.038882,-0.049478,-0.048464,0.258425,0.141486,0.154413,0.235686,-0.113823,-0.110299,-0.307535,-0.777907,-0.514466,-0.494314,-0.786019,-0.746675,-0.092632,0.165469,0.597755,0.126099,-0.002725,-0.366229,-0.318305,-0.410584,-0.178865,-0.035427,-0.004983,-0.060884,-0.007968,-0.057185,-0.007007,0.042275,0.288019,0.166468,0.199290,0.012473,-0.152993,-0.313385,-0.348403,-0.432780,-0.450064,-0.839565,-1.126745,-0.729821,-0.009316,0.213434,0.607926,0.168755,-0.211834,-0.313180,-0.153515,-0.269271,-0.191823,-0.069161,0.006423,-0.044664,-0.055500,-0.030507,-0.033926,0.107852,0.303459,0.253895,-0.058044,-0.210584,-0.613815,-0.668650,-0.763653,-0.731612,-0.680391,-1.019546,-1.086653,-0.434902,0.093212,0.139595,0.520371,0.191837,-0.332694,-0.215379,-0.065076,-0.277086,-0.277868,-0.046332,-0.009037,-0.018645,-0.044455,-0.010408,0.015247,0.146660,0.322519,0.249367,-0.149434,-0.221342,-0.556830,-0.730808,-0.960261,-1.109736,-1.126070,-1.152134,-0.965597,-0.543593,-0.033771,-0.040481,0.182565,0.032430,0.006698,0.131974,0.009632,-0.340743,-0.214814,-0.079506,-0.044951,-0.031731,-0.054438,0.007376,-0.117024,0.086108,0.217200,0.315627,-0.123709,-0.227978,-0.366835,-0.700749,-0.872503,-0.886235,-0.739036,-0.956177,-0.898355,-0.819963,-0.456723,-0.235641,-0.241400,0.022318,0.108584,0.147308,-0.253339,-0.284468,-0.137592,-0.097707,-0.029556,0.000096,-0.041114,-0.015253,-0.065834,0.124549,0.190397,0.169492,-0.071725,-0.526150,-0.573076,-0.690998,-0.880966,-0.681179,-0.586729,-0.646623,-0.806412,-0.732668,-0.560564,-0.386691,-0.229679,0.017273,0.310281,-0.010491,-0.246316,-0.226493,-0.112889,-0.057550,-0.008657,-0.018271,-0.028931,-0.046097,-0.015986,0.150927,0.334656,0.230979,-0.219747,-0.587426,-0.691235,-0.508442,-0.659905,-0.589631,-0.389728,-0.609030,-0.420074,-0.376129,-0.206207,-0.285657,-0.186666,0.068415,0.243499,-0.058731,-0.098841,-0.067258,-0.057438,-0.046004,-0.000177,-0.028487,-0.015291,-0.012557,-0.050100,0.038623,0.101758,0.109154,-0.050291,-0.317560,-0.263306,-0.501487,-0.582895,-0.678328,-0.576646,-0.331882,-0.155363,-0.005796,-0.137859,-0.191703,-0.207772,0.062722,0.085370,0.071964,-0.040284,-0.073815,-0.064837,-0.020750,-0.061599,-0.010665,0.005556,0.006323,-0.043978,0.018181,0.053764,0.118902,0.008763,0.135380,0.038457,-0.298565,-0.189441,-0.388954,-0.492150,-0.756556,-0.671751,-0.379432,-0.506212,-0.356487,-0.088673,0.031197,-0.067289,0.121228,0.018096,-0.041300,-0.027250,-0.005913,-0.024584,-0.018712,-0.026902,-0.020407,-0.041600,-0.019958,0.024872,0.077588,0.136917,0.304011,0.219728,-0.235141,-0.481934,-0.384852,-0.345618,-0.516017,-0.572812,-0.465975,-0.282864,-0.304594,-0.348533,-0.205429,0.052288,0.146918,0.112577,0.042556,-0.048257,-0.052900,-0.056041,-0.007450,0.006930,-0.016983,-0.034965,-0.029958,-0.008164,0.157465,0.217386,0.196355,0.103032,0.068525,0.079834,0.188159,0.155329,0.060674,0.088895,0.048063,0.055406,-0.054876,-0.039376,0.115833,0.142797,0.097591,0.032455,-0.040436,-0.056353,-0.034996,-0.003275,-0.039476,-0.024548,0.003795,-0.055730,-0.024124,-0.001044,-0.003322,0.036301,0.003286,-0.069291,-0.047916,-0.063955,-0.083226,-0.039295,-0.202194,-0.242058,-0.237055,-0.102982,-0.043643,-0.060264,0.015368,0.034486,0.021026,0.000432,-0.002692,-0.049538,-0.047301,0.001271,-0.046978,-0.019463,-0.010558,-0.023831,-0.052815,-0.015568,-0.017685,-0.018308,-0.048767,-0.058196,-0.024346,-0.075500,-0.060162,-0.047879,-0.028877,-0.015483,-0.040328,-0.055065,-0.037356,-0.043270,-0.013916,0.004590,-0.045228,-0.046021,-0.026867,-0.005753,0.003797,-0.038525,0.007333
-0.038373,-0.032123,-0.034514,0.004787,0.019943,0.004279,0.014596,-0.004430,-0.021463,-0.010823,0.011829,-0.012655,-0.037622,0.013718,0.011379,0.000519,-0.014028,-0.001010,-0.039236,0.000772,-0.040629,-0.026631,-0.024870,-0.043709,-0.011257,-0.011933,-0.007897,-0.025815,-0.016941,0.016203,-0.027287,-0.006626,-0.038661,-0.013113,-0.024579,-0.041457,-0.031546,-0.032698,0.002860,-0.004048,0.005082,-0.008202,-0.022589,0.033827,-0.079129,-0.011921,-0.006239,0.017496,-0.003379,0.003499,-0.004406,0.004630,-0.045934,0.019375,0.009609,-0.008503,-0.015298,-0.021028,0.014370,0.016449,-0.027565,-0.035657,-0.012917,-0.017544,-0.000727,0.008945,-0.012351,0.010221,-0.061400,-0.048907,-0.007498,0.065781,-0.021573,-0.074204,-0.014884,-0.030321,-0.004220,-0.026446,-0.035344,-0.029950,-0.045095,0.009477,-0.047814,-0.042279,0.006111,0.010484,-0.001744,-0.031844,-0.033303,-0.009859,-0.037541,-0.015941,-0.029980,-0.062496,-0.062831,-0.089360,-0.027395,-0.049419,-0.201338,-0.010984,-0.206087,-0.149580,-0.061878,-0.073181,-0.047968,-0.081701,-0.015134,-0.037458,-0.019519,-0.046413,-0.018484,-0.015866,0.011752,-0.017609,-0.008256,-0.004390,-0.028668,-0.042881,-0.008045,-0.051848,-0.061621,-0.125926,-0.166241,-0.163415,0.120973,0.294386,0.332180,0.134261,0.095443,-0.216720,-0.047024,-0.124971,-0.184437,-0.150507,-0.109803,-0.069355,-0.080290,-0.025244,0.002119,-0.010587,-0.005580,-0.039101,0.022231,-0.016937,-0.024768,-0.057935,-0.139980,-0.138007,-0.399014,-0.565203,-0.584564,-0.178226,-0.028164,0.151861,0.067741,0.001130,-0.355530,-0.374563,-0.415848,-0.524296,-0.511329,-0.491515,-0.456286,-0.262116,-0.129577,-0.051858,-0.010495,-0.012004,-0.039028,-0.030667,-0.046057,-0.004056,-0.070828,-0.181503,-0.156113,-0.208550,-0.500843,-0.727907,-0.738270,-0.409137,-0.024089,0.374429,0.625049,0.442213,0.467492,0.192999,-0.299612,-0.781557,-0.715362,-0.757386,-0.504665,-0.268531,-0.220630,-0.171132,-0.043694,-0.038905,0.001208,-0.048834,-0.014234,0.005243,-0.103287,-0.220969,-0.208977,-0.288968,-0.638309,-0.753923,-0.666595,-0.178234,0.283785,0.496482,0.650020,0.507610,0.600397,-0.189600,-0.757265,-0.720677,-0.604757,-0.695450,-0.558065,-0.379829,-0.397784,-0.228874,-0.098475,0.013429,0.021514,-0.008357,0.000401,0.007594,-0.080570,-0.209395,-0.317246,-0.410019,-0.665588,-0.749343,-0.305333,0.193945,0.349203,0.407665,0.781841,0.458950,-0.102963,-0.603665,-0.934496,-0.706294,-0.616835,-0.649396,-0.476755,-0.439218,-0.348045,-0.237049,-0.089141,-0.026566,-0.027777,-0.013757,-0.047022,-0.027868,-0.089585,-0.118915,-0.184220,-0.212542,-0.525440,-0.454359,-0.033695,0.172013,0.041637,0.464262,1.004171,0.391609,-0.398132,-0.848942,-0.845446,-0.584934,-0.378309,-0.281625,-0.318228,-0.255002,-0.257365,-0.123539,-0.054513,0.007871,0.017474,0.006900,-0.033879,0.026872,0.068266,0.100901,0.122229,-0.054197,-0.287575,-0.415220,0.061405,0.395820,0.242702,0.558169,1.035287,0.112082,-0.256924,-0.841753,-0.865053,-0.512037,-0.302300,-0.059220,-0.126622,-0.173163,-0.224819,-0.101458,-0.037188,-0.032871,-0.039782,-0.048399,-0.030031,0.020066,0.194870,0.241989,0.128133,0.278673,-0.239212,-0.468381,0.103191,0.543265,0.129106,0.998121,1.267423,0.339259,-0.078586,-0.542057,-0.409071,-0.187895,0.278302,0.234375,-0.031824,-0.130200,-0.108767,-0.024422,-0.017530,-0.008633,-0.029444,-0.013441,0.022057,-0.011113,0.190460,0.183054,0.128451,-0.019421,-0.298479,-0.647784,-0.209484,-0.222508,-0.149670,0.377010,0.647480,0.489559,-0.086212,-0.334002,-0.380245,-0.029521,0.256629,0.045887,-0.003150,-0.016138,-0.070331,0.022971,-0.002238,-0.019204,0.014141,0.009410,0.012312,-0.024806,0.025422,-0.013782,-0.179560,-0.326962,-0.396276,-0.530812,-0.728182,-1.143606,-0.559982,-0.072552,0.331314,0.063823,-0.480166,-0.607796,-0.386778,-0.018922,-0.241688,-0.047513,-0.002689,-0.155459,-0.014979,0.078760,0.017644,-0.006522,0.008038,0.010937,0.006509,-0.005692,-0.060721,-0.217904,-0.450476,-0.615742,-0.330435,-0.498901,-0.989380,-1.070137,-0.674252,-0.124507,0.228120,-0.212697,-0.468723,-0.855792,-0.377387,-0.182508,-0.239444,-0.048213,-0.211796,-0.280035,-0.084216,-0.079140,0.007362,-0.028764,-0.004167,-0.003689,0.013855,-0.056147,-0.105704,-0.247932,-0.449176,-0.548367,-0.313460,-0.531472,-0.783952,-0.507006,0.046986,0.222521,0.027692,-0.529507,-0.410539,-0.510833,-0.299009,-0.635082,-0.311538,0.004041,-0.037692,-0.231133,-0.203453,-0.064648,-0.045410,-0.047528,-0.028862,0.013356,-0.027211,-0.043101,-0.107821,-0.288456,-0.368123,-0.368718,-0.034838,-0.046943,-0.183250,0.079568,0.081347,0.143811,-0.150533,-0.241832,-0.344275,-0.759796,-0.791143,-0.787745,-0.508387,-0.160819,-0.111284,-0.245100,-0.238961,-0.083509,-0.026581,0.022467,-0.035043,-0.021712,-0.048639,-0.067140,-0.129972,-0.344356,-0.450880,-0.482808,-0.223192,0.046717,-0.100981,-0.348827,-0.357455,-0.003727,0.304092,0.055867,-0.680764,-0.882351,-0.604511,-0.703036,-0.425284,-0.396244,-0.337915,-0.374167,-0.351228,-0.144081,0.013362,-0.047473,0.021184,-0.038098,-0.046874,-0.061235,-0.115619,-0.405061,-0.473118,-0.464855,-0.503356,-0.214367,-0.425731,-0.731800,-0.708924,0.144945,0.434302,-0.087541,-0.899794,-1.037141,-0.508621,-0.364940,-0.205665,-0.352829,-0.396274,-0.438127,-0.323886,-0.070172,0.002671,-0.000129,-0.008944,0.015196,0.002931,-0.044987,-0.216674,-0.365102,-0.504996,-0.588482,-0.482652,-0.390694,-0.817916,-0.988004,-0.647397,0.162406,0.258371,-0.201030,-0.831433,-0.895620,-0.449409,-0.122954,-0.071880,-0.283976,-0.429579,-0.329937,-0.212557,-0.012718,0.049735,-0.001034,-0.023668,0.000158,-0.032432,-0.032131,-0.198761,-0.429979,-0.433113,-0.521070,-0.545990,-0.561659,-0.924440,-0.805258,-0.321812,0.069646,0.117586,-0.342118,-0.426288,-0.791075,-0.363559,-0.148006,-0.182960,-0.309459,-0.336358,-0.290900,-0.094948,-0.025046,0.036776,-0.003056,-0.030757,-0.032146,-0.025119,-0.057772,-0.142389,-0.423547,-0.562804,-0.683133,-0.662892,-0.702026,-0.728375,-0.422681,-0.109274,-0.261204,0.429047,0.241908,-0.156441,-0.671984,-0.484153,-0.278386,-0.160645,-0.168412,-0.272168,-0.102255,-0.053295,-0.028571,-0.030524,0.018811,-0.046066,0.011590,-0.005386,-0.046322,-0.149240,-0.217466,-0.450037,-0.641656,-0.753858,-0.833575,-0.611572,-0.170598,-0.198421,-0.179349,0.539306,0.230701,-0.313976,-0.610711,-0.388937,-0.253273,-0.104215,-0.200437,-0.202884,-0.073511,-0.034538,-0.035926,0.016041,-0.007048,0.014901,-0.033333,-0.011117,0.020548,-0.079790,-0.090834,-0.207679,-0.347104,-0.376633,-0.845951,-0.844925,-0.203732,-0.182386,-0.223443,-0.013441,0.224851,-0.334156,-0.194431,-0.162414,-0.118986,0.039407,-0.018399,0.002076,-0.100312,-0.030722,0.018747,-0.024515,-0.023566,-0.027062,-0.022485,0.018074,-0.038988,-0.034126,0.022803,-0.016202,-0.090377,-0.251727,-0.438238,-0.422026,-0.677042,-0.555873,-0.398127,-0.392589,-0.152782,-0.286740,-0.066363,0.207398,0.118723,0.068264,0.043612,0.132656,-0.001359,-0.040943,-0.003036,-0.035565,-0.021573,-0.004375,-0.006721,0.003549,0.017684,0.020244,0.065445,0.055423,0.060387,0.059612,0.004323,-0.064264,-0.181057,-0.153222,0.109496,0.369063,0.231746,0.289372,0.296815,0.402021,0.170891,0.096092,0.152835,0.060526,0.016609,0.010198,0.013649,0.006720,0.012801,-0.011102,0.019568,-0.031513,-0.036947,-0.001415,0.044166,0.007511,0.041791,0.135901,0.099170,0.037023,0.012727,0.014361,-0.008274,0.146016,0.211542,0.083459,0.125371,0.025949,0.000890,0.056085,0.126852,0.033339,-0.005592,-0.000840,-0.017517,-0.031474,-0.020097,-0.026606,-0.047491,-0.030037,0.010981,0.020764,-0.007278,0.030013,-0.003887,-0.008079,-0.046232,-0.046092,-0.040260,-0.011508,-0.014806,0.085741,0.011726,-0.023485,-0.017961,-0.005541,-0.010507,-0.026489,0.025913,-0.002922,-0.033322,-0.005753,0.008593,0.004729,-0.029332
-0.029254,0.024354,0.001668,-0.007172,-0.045877,0.020320,-0.018931,0.023576,-0.015282,-0.020220,-0.011034,0.018528,-0.016526,-0.010105,-0.044964,0.000446,-0.006772,0.017711,-0.023868,0.011598,-0.028904,0.022714,-0.029885,-0.022418,-0.002054,0.000966,-0.007083,-0.030546,-0.013181,-0.025094,-0.011191,0.003843,-0.025892,-0.034672,-0.028479,-0.025490,-0.039506,-0.001202,-0.027593,-0.010557,0.027279,0.024549,-0.006789,-0.015720,-0.024153,-0.011873,-0.041826,0.013660,-0.019792,-0.019660,-0.001605,-0.003887,-0.021484,0.015264,0.019973,0.022740,-0.008920,-0.012261,-0.032957,0.024177,0.008922,0.002129,0.002881,-0.042104,0.016928,0.029019,-0.010175,0.045979,0.029739,0.031803,0.014684,0.000226,-0.004430,0.042256,0.044091,0.017824,0.005881,-0.015758,-0.002158,0.004722,-0.015399,-0.038905,-0.024999,0.009096,0.022634,-0.030178,0.006685,-0.011438,0.003848,0.022351,-0.002112,0.000596,0.021017,0.008934,0.056625,0.043969,-0.028140,0.038145,-0.002869,0.017243,-0.028387,0.037798,0.054247,0.134210,0.058580,-0.063303,-0.077016,-0.064178,-0.042881,-0.046300,0.011057,0.002950,-0.038854,-0.039074,-0.013105,-0.041385,-0.029762,-0.028294,0.017697,-0.020100,-0.004473,0.012003,0.014469,-0.065500,-0.099517,-0.099379,-0.143789,-0.141265,-0.189513,-0.206839,-0.078543,-0.050783,-0.075310,-0.095258,-0.072569,-0.038880,-0.047708,0.001011,-0.027993,0.001816,0.012835,-0.042238,-0.020569,0.019953,-0.022590,0.045568,-0.004618,0.046294,0.028780,0.040500,-0.015630,-0.067381,-0.069343,-0.129665,0.027361,-0.039809,-0.126588,-0.055195,0.089110,0.159187,0.040575,-0.065081,-0.092408,-0.026554,-0.025417,-0.014198,-0.030424,-0.000448,-0.010119,-0.012385,-0.023468,-0.031397,-0.045502,-0.052861,-0.149058,-0.095323,-0.055563,-0.064451,-0.127289,-0.107303,-0.164687,-0.103575,0.035925,0.087713,0.015092,0.051680,-0.021263,-0.061161,0.029405,0.080856,0.029146,-0.049259,-0.082331,-0.124282,-0.043228,-0.004223,0.008964,-0.001865,-0.031364,-0.083251,-0.104042,-0.095141,-0.150708,-0.138291,-0.147866,-0.135066,-0.233817,-0.134895,-0.310436,-0.120909,-0.038979,0.047264,-0.051591,-0.052446,-0.154594,-0.173486,-0.080667,0.065924,-0.012869,-0.165316,-0.105575,-0.137920,-0.037291,-0.036230,-0.016221,0.014240,0.001390,-0.056340,-0.061261,-0.039873,-0.111707,-0.112022,-0.096033,-0.165612,-0.103295,-0.153249,-0.061669,0.122359,0.117531,0.111985,-0.016920,-0.132822,-0.326261,-0.312217,-0.317438,-0.040363,-0.076759,-0.101830,-0.122955,-0.135409,-0.040040,0.011081,0.023565,-0.046024,0.022124,-0.033018,-0.062636,-0.125492,-0.109587,-0.195767,-0.171268,-0.180054,-0.038428,-0.102021,0.000475,0.084149,0.005969,-0.061494,-0.177461,-0.334007,-0.412044,-0.285778,-0.181217,0.018856,0.062486,-0.011753,-0.086507,-0.104441,-0.035222,0.006412,-0.014023,-0.020968,-0.002666,-0.042010,-0.107784,-0.111769,-0.131727,-0.177643,-0.214274,-0.184599,-0.197323,-0.211980,-0.105769,-0.179839,-0.195611,-0.334521,-0.433780,-0.406634,-0.430739,-0.366347,0.016655,0.220818,0.149327,0.039765,-0.040105,-0.089480,-0.055007,-0.043234,-0.021010,0.016372,0.012322,-0.024510,-0.115322,-0.137078,-0.179640,-0.187352,-0.254948,-0.339312,-0.333546,-0.417652,-0.245631,-0.252007,-0.420078,-0.522080,-0.495025,-0.359844,-0.346321,-0.213503,-0.009333,0.174311,0.145166,0.059161,0.033513,-0.046680,-0.009100,-0.000286,-0.037784,-0.005984,0.003509,-0.053875,-0.109181,-0.120161,-0.182904,-0.288094,-0.220723,-0.374025,-0.495668,-0.476450,-0.338284,-0.347001,-0.624008,-0.635030,-0.471474,-0.309955,-0.318971,-0.199345,0.032965,0.227383,0.122807,0.093829,0.032074,-0.046506,0.020225,-0.020798,0.000744,-0.019657,-0.042220,-0.026101,-0.058593,-0.063343,-0.191078,-0.333749,-0.273032,-0.392674,-0.434993,-0.383180,-0.311455,-0.338510,-0.385688,-0.353241,-0.412814,-0.446426,-0.429719,-0.278659,-0.022779,0.189615,0.222351,0.256750,0.054652,-0.014966,-0.045357,-0.021710,-0.009467,0.017647,0.003388,-0.073821,-0.090341,-0.040446,-0.158730,-0.208697,-0.148684,-0.291987,-0.259406,-0.152776,-0.214304,-0.262796,-0.224908,-0.208772,-0.387369,-0.446961,-0.636401,-0.273469,-0.023441,0.059418,0.202513,0.171621,0.091970,-0.036077,0.018144,-0.039520,-0.002995,0.017243,-0.015350,-0.050667,-0.058213,-0.040160,-0.048876,0.028320,0.132838,0.063077,-0.047751,-0.016485,-0.012683,-0.162459,-0.289883,-0.345509,-0.382558,-0.385021,-0.407122,-0.284092,-0.068472,0.020386,0.104029,0.126626,0.039429,-0.025882,-0.023180,-0.035616,-0.009782,-0.030550,-0.045956,-0.063212,-0.121557,-0.000817,-0.017648,0.106139,0.137398,0.124716,0.203425,0.336413,0.241931,-0.193180,-0.248218,-0.404843,-0.491721,-0.488960,-0.389643,-0.298480,-0.202475,-0.032272,0.047028,0.102170,0.047914,-0.018369,0.017608,-0.041096,0.001325,-0.033580,-0.049082,-0.073944,-0.072578,-0.022707,0.051504,0.043533,0.158616,0.280922,0.382036,0.371148,0.176675,-0.152731,-0.430088,-0.468627,-0.407650,-0.296135,-0.354460,-0.315132,-0.130164,0.011988,0.099039,0.105750,0.115104,0.034941,0.016111,-0.006869,-0.006824,-0.007077,-0.007238,-0.070199,-0.065356,0.008592,-0.082066,-0.065346,0.103928,0.374096,0.372645,0.156607,0.010724,-0.243558,-0.324706,-0.250999,-0.220895,-0.065836,-0.147667,-0.201279,-0.089107,0.051280,0.180777,0.125381,0.113215,0.047578,-0.017182,-0.006862,0.015091,-0.042650,0.011099,-0.064598,-0.116618,-0.035807,-0.136266,-0.175217,-0.024964,0.316362,0.263764,0.062473,-0.095896,-0.329747,-0.080838,-0.117184,-0.174740,-0.031355,-0.155345,-0.238287,-0.122724,-0.036500,0.041672,0.107162,0.078677,0.060720,-0.040464,-0.028420,-0.004214,-0.020946,-0.002958,-0.081173,-0.094406,-0.064794,-0.093889,-0.182367,-0.048749,-0.022828,0.069774,-0.003266,-0.047271,-0.090126,-0.046894,-0.103310,-0.089284,-0.141918,-0.150502,-0.143352,-0.176108,-0.137335,-0.064831,-0.027028,0.045804,0.052473,0.011014,-0.022809,0.013964,-0.020980,-0.005683,-0.051870,-0.068199,-0.019965,0.020980,-0.049120,-0.110346,0.020243,-0.017725,-0.008633,0.005943,-0.065169,-0.048432,-0.120669,-0.211422,-0.167339,-0.030364,-0.210436,-0.214959,-0.189399,-0.177763,-0.126121,-0.059044,0.006292,0.017874,-0.023621,-0.013896,-0.045947,-0.001113,-0.034510,-0.063925,-0.005156,0.107448,0.090400,0.099257,-0.023355,-0.012851,-0.080024,-0.097304,-0.075933,-0.068941,-0.226663,-0.270180,-0.225910,-0.188897,-0.146909,-0.219585,-0.170908,-0.164463,-0.103741,-0.032394,-0.030358,0.023000,-0.045511,0.004521,-0.008306,-0.022855,-0.041770,-0.072469,-0.012319,-0.038510,-0.001465,0.014390,-0.031536,0.006132,-0.041542,-0.016606,-0.007985,-0.113095,-0.196250,-0.246296,-0.103961,-0.112818,-0.119807,-0.039710,-0.047750,0.009598,0.015778,-0.033491,-0.027683,-0.020446,0.011866,-0.016368,-0.030563,0.012591,-0.038898,-0.035216,-0.089021,-0.073267,-0.083525,-0.037016,0.047994,-0.047972,-0.071367,-0.055469,-0.112954,-0.113004,-0.027145,-0.119362,-0.060683,-0.034065,-0.018777,-0.033058,0.010980,0.038022,-0.006414,0.000649,-0.038268,-0.021978,-0.043982,-0.019638,0.003225,0.014161,0.005164,-0.036069,-0.053627,-0.027177,-0.081008,-0.075403,-0.144500,-0.132027,-0.127737,-0.093410,-0.157176,-0.147842,-0.081409,-0.114774,-0.089291,-0.030742,-0.014874,-0.016194,-0.017698,-0.028857,0.002141,-0.034813,-0.029314,-0.020243,0.014763,-0.021307,0.004054,0.017059,0.004639,-0.023320,0.000143,-0.014467,-0.038090,-0.040632,-0.029062,0.020013,-0.026100,-0.004580,0.007192,-0.044059,-0.017994,-0.069184,-0.052375,-0.026769,-0.032364,0.000238,-0.041339,0.016130,-0.030327,0.008154,-0.030542,0.019866,0.020987,-0.013580,-0.025528,0.010599,0.011390,0.024804,0.001713,-0.011960,-0.024673,-0.020741,-0.043178,0.003681,0.009458,-0.015329,0.000526,-0.043424,-0.036380,-0.002782,-0.031499,-0.000302,-0.002064,0.000805,-0.031849,-0.049648,-0.018982,-0.010484,0.020063,-0.002999,-0.027480
-0.033590,-0.006244,-0.029604,-0.000892,0.014505,-0.044156,-0.014653,0.014158,0.004627,0.023197,-0.029212,-0.037099,0.026351,0.021053,0.021442,-0.010801,-0.001887,0.024784,-0.001388,-0.029966,-0.030655,-0.018862,0.017900,0.016823,0.002325,0.018912,-0.027284,-0.033309,0.013824,0.015994,-0.014512,0.024472,-0.017441,0.000084,-0.009149,-0.044002,-0.022015,0.008320,-0.076214,-0.070288,-0.008467,-0.020718,0.042486,-0.049096,-0.060366,-0.027674,-0.020991,0.003344,-0.023838,0.025745,0.019235,-0.013582,-0.020060,0.013048,-0.020167,0.026503,0.004769,-0.003214,-0.033998,-0.009054,-0.014584,-0.011923,-0.053885,-0.044521,-0.088108,-0.131937,-0.118854,-0.145278,-0.208010,-0.085994,-0.109976,-0.197344,-0.231721,-0.213993,-0.099558,-0.054311,0.007460,-0.028887,-0.038076,-0.038855,-0.028968,-0.041789,-0.000308,-0.004246,0.015512,0.023764,-0.004934,-0.008230,-0.006784,-0.034152,-0.092168,-0.080852,-0.188684,-0.188209,-0.299770,-0.243154,-0.278559,-0.265543,-0.439998,-0.574637,-0.560625,-0.447337,-0.351018,-0.151532,-0.067759,0.013598,0.048954,0.018818,-0.005323,-0.013180,0.015392,0.011386,-0.010664,-0.012144,-0.020051,-0.022432,-0.004129,-0.046397,-0.073432,-0.089124,-0.071046,-0.120408,-0.279163,-0.142666,-0.144268,-0.243018,-0.286345,-0.685125,-0.924858,-0.915627,-0.777580,-0.504425,-0.090351,0.181761,0.063315,0.093409,-0.019769,-0.096159,-0.057442,-0.001235,0.012837,-0.026581,-0.009398,-0.024596,0.028898,0.035687,-0.041722,-0.170760,-0.129345,-0.245293,-0.309333,0.057535,0.148822,-0.197490,-0.060154,-0.367735,-1.013682,-1.165447,-0.789360,-0.309135,-0.105101,0.310515,0.444057,0.327632,0.109460,-0.044826,-0.028682,0.004280,-0.022698,0.018980,-0.011963,-0.037665,0.011677,0.029383,-0.136270,-0.187880,-0.250117,-0.597322,-0.399727,-0.229573,-0.137251,-0.010209,-0.354391,-1.190666,-2.337383,-2.014032,-1.002719,-0.319242,-0.157270,0.625420,1.013225,0.511854,0.078774,0.032487,0.080355,-0.034551,-0.040407,-0.003550,0.019285,-0.024327,0.009278,-0.016978,-0.154615,-0.332266,-0.474695,-0.662332,-0.003096,0.314795,0.099489,0.062050,-0.567711,-2.104039,-3.080754,-2.748523,-1.269048,-0.556456,-0.530357,0.570692,1.051460,0.514096,-0.021296,0.127560,0.016181,0.026278,0.012456,-0.042118,-0.035295,0.010833,0.081358,0.140307,-0.088993,-0.285544,-0.311499,-0.293131,-0.156505,-0.120128,0.452108,-0.049756,-0.843839,-2.193138,-2.750078,-1.778787,-0.723643,-0.074976,0.356201,0.522047,0.617198,0.466184,0.199044,0.224190,-0.005612,-0.022044,0.007029,-0.000962,-0.012858,-0.000923,0.136696,0.140110,-0.063956,-0.302468,-0.269247,-0.253158,-0.379575,0.316682,0.684481,0.029137,-1.136790,-1.856553,-1.974971,-0.835055,0.327593,0.205742,0.634276,0.541251,0.330286,0.501048,0.138359,0.290882,0.097557,0.002070,0.012061,-0.020664,0.026803,-0.015447,0.086231,-0.008101,-0.127627,-0.027119,-0.173290,-0.201614,-0.231496,0.274226,0.402795,-0.138881,-1.134493,-1.446189,-1.390235,-0.004003,0.974498,1.090651,0.506505,0.609645,0.271536,0.235383,0.254752,0.450110,0.070131,-0.010167,-0.013265,-0.040954,0.006898,-0.008898,-0.031495,-0.109195,-0.139701,-0.046700,-0.406298,-0.256641,-0.097348,0.245638,0.165445,-0.629201,-1.065262,-1.165960,-0.876283,0.413438,1.390038,1.061540,0.074670,0.439645,0.081004,-0.140315,0.003079,0.194027,0.090573,-0.004399,-0.008424,-0.038924,-0.079563,-0.006072,-0.163259,-0.483302,-0.025870,0.081339,-0.204448,-0.434727,0.257214,0.764829,0.447385,-0.188572,-0.312569,-0.213098,-0.222640,0.221130,0.554751,-0.198767,-0.375256,0.003741,-0.283271,-0.699378,-0.468229,-0.039995,0.006464,0.010999,-0.044130,0.017823,-0.017234,-0.170985,-0.194765,-0.198492,0.228855,0.444429,-0.204302,-0.263393,0.641305,0.617785,0.112165,-0.073710,-0.114629,-0.483769,-0.376359,-0.144794,-0.221267,-0.293646,-0.134550,-0.177597,-0.335967,-0.536222,-0.487890,-0.148407,-0.142741,-0.002642,0.023532,-0.018655,0.013506,-0.142939,-0.206467,-0.082597,0.417951,0.610439,0.486239,0.262712,0.611356,0.242546,-0.022553,-0.160371,0.199208,0.022238,0.058472,-0.015190,-0.074969,0.440359,0.147021,-0.380898,-0.169744,-0.471346,-0.452552,-0.235649,-0.123144,-0.019444,-0.019542,0.026239,-0.014081,-0.099186,-0.238350,-0.167450,0.407999,0.380361,0.720342,0.275913,0.493529,0.466638,0.392397,0.170078,0.162976,-0.200392,0.310314,0.576574,0.498100,0.732602,-0.370059,-0.343192,-0.446248,-0.488732,-0.480848,-0.255508,-0.048216,-0.040892,-0.012113,-0.023243,-0.024842,-0.013901,-0.257198,-0.224665,0.028613,-0.141411,0.205801,0.009455,-0.005523,-0.095577,-0.017490,0.117410,-0.016500,-0.257405,0.476403,0.112103,0.431353,0.084729,-0.513823,-0.180222,-0.439506,-0.494599,-0.387558,-0.232377,-0.118052,-0.032517,-0.019406,0.016987,-0.038115,-0.080831,-0.097132,-0.208151,-0.059356,-0.069094,-0.148694,-0.286933,-0.256474,-0.190779,-0.239698,-0.156216,-0.358237,-0.271561,-0.016075,0.071243,0.329270,-0.311795,-0.635804,-0.279023,-0.361878,-0.398444,-0.258515,-0.101330,-0.027858,-0.022123,0.022058,-0.033907,-0.043104,-0.140253,-0.159987,-0.292336,-0.306257,-0.102750,-0.099413,-0.362027,-0.671069,-0.459903,0.191839,-0.088662,-0.094122,0.106485,-0.117246,-0.367778,-0.149830,-0.169472,-0.145146,-0.193466,-0.338317,-0.289234,-0.112720,-0.037127,-0.031362,0.007089,-0.037686,-0.030430,0.004220,-0.123982,-0.273396,-0.530505,-0.547984,-0.090603,-0.194543,-0.719134,-0.855582,-0.501544,-0.278817,-0.595584,-0.328098,-0.080668,-0.389740,-0.477694,-0.035905,-0.179440,-0.124451,-0.218336,-0.379495,-0.228036,-0.099698,-0.029103,-0.012360,-0.039204,-0.032226,0.003899,0.005737,-0.091989,-0.190251,-0.677161,-0.793516,-0.306653,-0.236335,-0.569411,-0.442634,-0.371852,-0.587866,-1.102105,-0.856975,-0.455267,-0.549379,-0.040499,-0.030137,-0.126086,-0.225705,-0.175629,-0.175384,-0.111542,-0.081700,-0.045923,-0.045218,-0.020803,0.008061,-0.007536,-0.027710,-0.007199,-0.157357,-0.352523,-0.533068,-0.453552,-0.305086,-0.373817,-0.530509,-0.288336,-0.676893,-1.011249,-0.716712,-0.404509,-0.173774,0.256539,-0.115889,-0.214437,-0.109703,0.194602,0.104677,0.188828,0.011942,-0.005634,-0.020595,-0.034876,0.020545,-0.004593,-0.018254,-0.013460,-0.101019,-0.032124,-0.146362,-0.169988,-0.246080,-0.149039,-0.266854,0.046241,-0.388898,-0.435871,-0.357665,-0.130553,0.279655,0.188425,-0.206565,-0.233077,-0.137528,0.140823,0.190225,0.177816,0.089117,0.016728,-0.045890,0.004424,-0.007695,-0.004774,0.013785,-0.030338,-0.072331,0.016183,0.101054,0.007550,0.071860,0.215478,-0.094394,-0.191115,-0.718910,-0.283757,0.036985,0.323874,0.532901,0.072509,-0.196492,-0.116644,-0.075257,0.063248,0.103372,0.076945,0.007610,-0.033421,0.010307,0.021455,0.026097,0.015576,-0.001313,-0.021866,-0.055069,-0.056182,-0.042013,-0.241651,0.080450,0.171221,-0.187532,-0.409853,-0.487520,-0.230828,0.105760,-0.056080,0.147210,0.004039,-0.176570,-0.027883,-0.075042,-0.087136,-0.073981,0.027048,0.019448,0.000222,-0.001020,-0.006295,0.011474,-0.017925,-0.012200,0.010594,-0.044196,-0.052776,-0.128783,-0.172098,-0.195613,-0.606591,-0.742344,-0.799162,-0.607379,-0.426449,-0.128078,-0.274804,-0.391017,-0.355837,-0.233324,-0.112439,-0.271772,-0.237188,-0.074230,-0.035011,0.007942,-0.031484,-0.014928,0.018476,0.013104,-0.043169,-0.015010,-0.004566,-0.033177,0.016110,-0.117318,-0.089447,-0.093715,-0.279757,-0.359212,-0.403348,-0.360390,-0.230614,-0.412391,-0.413113,-0.503175,-0.534304,-0.433826,-0.206031,-0.095383,-0.073807,0.000441,0.001076,-0.034567,0.002706,-0.041591,-0.042327,0.015453,-0.012291,0.020386,0.001365,-0.011245,-0.018739,-0.025681,0.016658,-0.013936,0.025911,-0.007407,-0.028585,-0.058826,-0.041772,-0.166724,-0.073070,-0.001038,0.001444,-0.017966,-0.041750,-0.029919,0.006699,0.050262,0.021151,0.011302,-0.007183,-0.017612,0.020973
-0.034159,-0.017460,0.020390,-0.045896,0.014487,0.013585,-0.000294,-0.023927,-0.035420,0.015504,-0.034959,-0.022993,-0.015357,-0.004007,-0.016860,-0.002686,-0.031098,0.016203,-0.005487,-0.038436,0.015464,-0.013129,-0.042579,-0.022785,-0.045763,0.018872,-0.038912,0.009775,-0.015502,-0.012288,0.003557,-0.002931,0.016983,-0.000752,-0.003222,0.005083,-0.019633,-0.028904,-0.042325,0.000935,-0.037186,-0.037593,0.018278,-0.007990,0.010713,-0.019089,-0.032822,-0.043697,-0.027004,0.009358,-0.034604,-0.036215,-0.028835,-0.030619,-0.012159,-0.027868,-0.036445,-0.004342,-0.042790,-0.005219,-0.041326,0.007495,-0.033324,0.007600,-0.053850,0.004797,-0.011010,-0.024354,-0.105776,-0.075108,-0.091076,-0.079247,-0.075262,-0.032817,0.066931,0.055661,0.078900,0.060423,0.094838,-0.033019,0.011119,-0.041781,-0.022445,-0.042452,-0.025671,0.012125,-0.023590,-0.015394,-0.016972,-0.021852,-0.049808,-0.044412,-0.089170,-0.112310,-0.102372,-0.137683,-0.230823,-0.229339,-0.119599,-0.229012,-0.135746,0.137840,0.172108,0.159986,0.266034,0.243904,0.138943,-0.020396,-0.030664,0.005594,-0.004569,-0.044346,0.010548,0.019714,-0.040324,-0.041208,0.004015,-0.040142,-0.190098,-0.279921,-0.283218,-0.293022,-0.398172,-0.406807,-0.415177,-0.362048,-0.052288,0.135161,-0.018092,0.332430,0.643558,0.567715,0.438837,0.730244,0.456394,0.298951,0.211118,0.017013,0.010908,0.004583,0.011040,-0.021543,0.005997,-0.010399,-0.064027,-0.141976,-0.385005,-0.646908,-0.517143,-0.561566,-0.413113,-0.176005,-0.076235,-0.087881,-0.138303,-0.265650,-0.243881,0.028449,0.300577,0.318149,0.467284,0.703167,0.901035,0.589169,0.546292,0.146341,0.017493,-0.039604,0.016722,-0.019617,0.009834,-0.010071,-0.043035,-0.145330,-0.521196,-0.788650,-0.578661,-0.443795,-0.055842,0.187805,-0.416613,-0.590439,-0.357424,-0.728357,-0.247993,0.032986,0.432275,0.503900,0.524014,0.508984,0.625630,0.442830,0.409122,0.108258,0.057837,0.007881,0.011415,-0.012031,-0.053909,0.024773,0.020911,-0.085743,-0.446841,-0.580935,-0.405749,-0.040690,0.695389,0.323742,-0.195420,-0.307959,-0.290404,-0.157973,0.103524,0.111065,0.300134,0.336396,0.244595,-0.091565,0.031706,0.129469,0.200754,0.149056,0.022981,0.014438,-0.004596,-0.002382,0.008454,-0.022859,-0.001505,-0.102664,-0.334000,-0.281220,-0.334918,0.031427,0.709174,0.265905,-0.098618,-0.606934,-0.580111,-0.435822,-0.295146,-0.227656,-0.430239,-0.642375,-0.439505,-0.394215,-0.401922,-0.201169,-0.064072,0.100603,0.023602,-0.026889,-0.033204,-0.017459,-0.024409,0.003881,-0.012844,-0.102830,-0.297115,-0.395190,-0.470604,0.337511,0.687739,0.324542,-0.129152,-0.672542,-0.916905,-1.076133,-1.364836,-1.521766,-1.220208,-1.276621,-1.003319,-0.853907,-0.436230,-0.483964,-0.181846,0.008552,0.050741,-0.013594,0.014337,-0.008948,0.008679,-0.035545,-0.029506,-0.047503,-0.077664,-0.346271,-0.383867,0.436259,0.665531,0.316980,0.094712,-0.478737,-1.057186,-1.286464,-1.430013,-1.723214,-1.621485,-1.590811,-1.203318,-0.904328,-0.596235,-0.548265,-0.303564,0.012901,-0.008201,0.009621,-0.035145,-0.028736,-0.037981,-0.055552,-0.023905,-0.063261,-0.076441,-0.132527,-0.434253,0.104743,0.419509,0.108137,0.329792,-0.101492,-0.532009,-0.696003,-0.852171,-0.603929,-0.877990,-1.223045,-1.004919,-0.708585,-0.705678,-0.665560,-0.427124,-0.100627,-0.049488,-0.012845,-0.037083,-0.021017,-0.035430,-0.015400,0.029456,-0.096124,-0.008045,-0.130820,-0.295451,-0.241255,0.282746,0.310188,0.020432,-0.117686,-0.178226,-0.409597,-0.616223,-0.382307,-0.187102,-0.587121,-0.714741,-0.604955,-0.654723,-0.576973,-0.411565,-0.087448,-0.024347,-0.001448,0.023492,0.005145,-0.043786,-0.029118,-0.011693,-0.116732,-0.117005,0.055814,-0.317532,0.014326,0.310479,0.146605,0.053460,-0.248736,-0.064589,-0.262823,-0.672768,-0.463345,-0.313575,-0.076867,-0.185112,-0.445054,-0.724656,-0.516200,-0.340314,-0.127984,-0.022328,0.003512,0.004462,-0.039497,-0.028846,0.009291,0.014453,-0.148775,-0.267051,-0.248571,-0.309951,0.025341,0.480607,0.220804,-0.101742,-0.034675,0.383320,0.302201,0.250000,-0.246559,-0.183246,0.167553,0.153409,-0.403415,-0.487281,-0.375637,-0.228259,-0.152310,0.010914,-0.012086,-0.030891,-0.032962,-0.046724,0.008643,-0.016938,-0.184001,-0.572744,-0.611168,-0.612934,-0.030680,0.440571,0.410062,0.364216,-0.140779,-0.193468,0.027329,0.218499,0.521593,0.214475,0.170022,-0.046453,-0.497499,-0.542108,-0.338861,-0.307139,-0.144436,-0.048203,-0.041731,-0.020843,-0.043283,-0.033141,-0.020321,-0.026306,-0.200588,-0.717587,-0.918068,-0.849281,-0.584081,-0.019512,0.164601,0.207621,-0.086629,-0.654234,-0.408417,0.006891,0.466362,0.507526,0.436627,-0.057899,-0.561889,-0.448785,-0.361232,-0.284905,-0.094490,-0.057664,-0.043113,0.021277,-0.042374,-0.068297,-0.059641,-0.058742,-0.190467,-0.678443,-0.901371,-0.924865,-0.859917,-0.690292,-0.315936,-0.413077,-0.587216,-0.652650,-0.697913,-0.261920,0.099914,0.391398,0.229498,0.204612,-0.215449,-0.380434,-0.472029,-0.280659,-0.089193,-0.029548,-0.050571,-0.023825,0.007520,-0.051426,-0.090348,-0.039376,-0.179584,-0.540032,-0.752643,-0.866577,-0.925175,-0.875897,-0.680197,-0.832650,-0.858688,-0.494718,-0.549600,0.050723,0.356418,0.203952,-0.023948,0.197576,-0.003001,-0.497480,-0.469938,-0.131041,-0.004735,0.010145,0.011802,-0.025965,0.012376,0.005442,-0.012616,-0.038361,-0.129679,-0.428301,-0.412037,-0.621337,-0.877287,-0.745370,-0.810105,-0.781595,-0.613693,-0.563501,-0.259162,0.072068,0.333506,0.452286,0.138981,0.124168,-0.167371,-0.474377,-0.315365,-0.106376,-0.026054,0.005241,0.022896,-0.037386,-0.001546,-0.004908,-0.059052,-0.045342,-0.076715,-0.489640,-0.178020,0.215386,-0.138323,-0.251138,-0.403966,-0.213456,-0.003897,-0.214385,-0.073873,0.111623,0.206983,0.342463,0.370114,0.022246,-0.075718,-0.304723,-0.229179,-0.076543,-0.051035,0.010438,0.021599,-0.024533,-0.003804,0.008787,-0.040928,-0.105175,-0.080831,-0.367641,-0.010287,0.430931,0.279628,0.478263,0.153537,0.421679,0.166476,0.011276,0.006152,-0.022975,-0.253651,0.228954,0.367415,0.033900,-0.178584,-0.230224,-0.163354,-0.061536,-0.026116,-0.003287,-0.044711,-0.020039,-0.001963,0.018376,-0.027209,-0.025262,-0.038090,-0.431815,-0.355261,0.278012,0.574763,0.459556,0.560717,0.265521,0.025391,-0.001527,-0.150312,0.012016,0.125079,0.107760,0.070438,-0.231735,-0.263521,-0.129849,-0.080197,-0.043439,-0.019937,-0.013404,-0.004468,0.010824,-0.024077,-0.005992,-0.056820,-0.011904,0.033002,-0.015134,-0.154207,-0.031952,-0.075286,0.050565,0.249488,0.044123,0.033388,-0.042598,-0.048058,0.136271,-0.238553,-0.514162,-0.377976,-0.213910,-0.120650,-0.037827,0.004474,0.021840,-0.012604,-0.038962,-0.036622,0.020254,0.008023,0.004619,-0.004865,-0.082826,-0.015359,0.073307,-0.152591,-0.228558,-0.450723,-0.942181,-0.701924,-0.353422,-0.241650,-0.178862,-0.039932,-0.325952,-0.560108,-0.499220,-0.217268,-0.037311,-0.009247,0.008853,0.002786,0.005652,-0.038414,-0.033944,-0.006705,-0.002287,-0.019713,0.003382,-0.005810,-0.040974,-0.002950,0.003148,-0.030232,0.006333,-0.063785,-0.251328,-0.300468,-0.381855,-0.383849,-0.353454,-0.156301,-0.134814,-0.110051,-0.109795,-0.086921,-0.003042,-0.012529,-0.021592,0.001109,-0.016394,-0.014793,0.010381,0.024218,-0.006414,0.023171,-0.007186,-0.031668,-0.003778,0.001974,0.038331,0.020332,0.014278,-0.052888,-0.024954,-0.023783,-0.014000,0.017599,-0.056435,-0.064168,-0.070216,-0.107558,-0.074531,0.008461,-0.027281,0.009743,-0.040208,0.016541,0.009859,-0.040839,-0.020888,-0.036697,-0.008901,-0.035202,-0.037178,-0.040011,-0.036729,0.005717,-0.019037,0.000177,0.028732,-0.048256,0.018058,-0.004198,-0.043578,0.003607,-0.044967,-0.027554,0.002463,-0.023314,0.000543,-0.034561,0.003401,0.010109,-0.042130,0.017819,-0.021656,-0.043744,0.010499,-0.036494
-0.055282,-0.052514,-0.043890,-0.017453,-0.040987,-0.034339,-0.010735,-0.030987,-0.056670,-0.062112,0.004503,-0.060752,-0.053917,0.018068,-0.015507,-0.054620,-0.014982,-0.007498,-0.029316,-0.035211,-0.055493,-0.054716,-0.022517,-0.003708,-0.002952,-0.021803,-0.010587,-0.049306,-0.018818,-0.024786,-0.039071,-0.009943,-0.013143,-0.018802,-0.032160,-0.053385,-0.038748,-0.036857,0.016850,-0.003442,0.033382,0.036194,-0.031600,0.036739,0.000689,0.041182,-0.010909,-0.032316,-0.004457,0.009956,-0.023973,-0.004889,0.007189,-0.056966,-0.017958,-0.003034,-0.014612,-0.035816,-0.059609,-0.040699,0.009986,-0.007573,0.111249,0.126179,0.045573,0.097689,0.230751,0.186156,0.347202,0.046773,0.088344,0.201596,0.180663,0.103441,0.097693,0.205463,0.242722,0.335508,0.162755,0.014059,-0.050901,-0.046317,-0.004873,-0.039847,-0.005387,-0.030102,-0.050305,-0.027206,-0.001810,0.091131,0.194650,0.085030,-0.159147,-0.299635,-0.196095,-0.008663,0.207070,0.107953,0.608178,0.498205,0.244089,0.477777,0.389825,0.676008,0.654806,0.682989,0.522447,0.350018,-0.000481,-0.180734,-0.024561,-0.002992,-0.058815,-0.009854,-0.050634,0.001146,-0.045546,0.072414,0.086694,-0.003364,-0.277286,-0.577842,-0.188947,-0.231044,-0.078055,0.193372,-0.005037,-0.261847,-0.340177,0.310125,0.032162,0.587941,0.873930,0.662234,0.404897,0.158226,-0.146883,-0.206050,-0.043269,-0.048697,-0.025170,-0.039458,-0.059032,-0.015588,-0.087574,0.021143,-0.027627,-0.115256,-0.250839,-0.217581,0.011853,-0.286438,-0.331700,-0.583316,-0.758390,-0.582383,-0.638447,-0.285628,-0.001027,0.360911,0.250608,-0.010828,-0.055966,-0.046302,-0.167906,-0.154716,-0.063290,-0.057986,-0.019234,-0.030867,-0.039092,-0.098304,-0.073799,-0.039360,-0.071429,-0.030445,-0.172577,-0.123385,-0.280067,-0.413966,-0.631999,-1.095880,-0.847006,-0.776578,-0.559767,-0.224267,-0.457904,-0.760808,-0.486889,-0.603659,-0.669470,-0.528680,-0.251769,-0.136571,-0.099402,-0.007381,-0.054775,-0.055878,-0.063296,-0.064537,-0.104438,-0.087062,-0.075024,-0.231813,-0.303460,-0.271035,-0.264155,-0.400429,-0.850944,-1.131541,-0.795237,-0.502737,-0.331138,-0.441083,-0.957533,-1.389471,-1.235684,-1.145330,-1.045650,-0.637813,-0.306913,-0.212971,-0.131203,-0.009581,-0.043447,-0.057986,-0.003359,-0.053178,-0.123389,-0.081699,-0.172786,-0.395161,-0.334540,-0.192828,-0.670371,-0.728016,-0.631486,-0.830575,-0.721913,-0.426267,-0.682520,-1.171640,-1.765055,-1.876271,-1.572763,-1.455237,-1.243568,-0.856903,-0.333874,-0.239373,-0.175729,-0.020081,-0.020745,-0.049052,-0.005949,-0.021294,-0.082811,-0.134747,-0.147624,-0.008635,0.107672,-0.371321,-0.821638,-0.745680,-0.427091,-0.579922,-0.512225,-0.433015,-0.622252,-1.916988,-2.219563,-1.794520,-1.341566,-1.452304,-1.343541,-0.922366,-0.353443,-0.264186,-0.114226,-0.002947,-0.060580,-0.014920,-0.020727,-0.095152,-0.151024,-0.343715,-0.174019,0.216221,0.252336,-0.274416,-0.435982,-0.336947,-0.197853,0.280706,-0.571149,-0.962674,-1.190660,-1.611524,-1.208926,-1.089263,-0.893805,-1.270310,-1.045570,-0.794900,-0.395348,-0.223765,-0.088507,-0.059578,-0.021865,-0.033975,-0.028280,-0.088050,-0.232524,-0.370180,-0.126398,0.479930,0.108315,-0.054327,-0.106040,-0.094078,0.638713,0.624094,-0.512834,-1.577588,-1.047496,-0.567212,-0.129075,-0.284553,0.026181,-0.500844,-0.376917,-0.212041,-0.303985,-0.402672,-0.200365,-0.060297,-0.050364,-0.037649,-0.051033,-0.026989,-0.168835,-0.296763,0.162133,0.408331,0.033370,0.062380,0.291780,0.544700,0.608547,0.172471,-0.919190,-0.914674,-0.089847,0.360528,0.265779,0.307802,0.751022,0.218345,0.339674,0.424422,0.140591,-0.391385,-0.195106,-0.059830,-0.007315,-0.034294,-0.019846,-0.008148,-0.124712,-0.155221,0.304920,0.182613,0.085720,0.333918,0.381363,0.327986,0.426080,-0.168473,-0.530738,0.187579,0.531492,0.283563,0.382275,0.873464,0.742057,0.231786,0.489748,0.828597,0.411641,-0.165865,-0.132974,-0.049067,0.001493,-0.052905,-0.016885,-0.066036,-0.138307,-0.322353,-0.039296,0.164567,0.034873,0.328870,0.358369,0.370275,0.229699,-0.614779,-0.655077,0.132634,0.008747,0.143195,0.281598,0.466616,0.284365,0.526050,0.724560,0.715043,0.166889,0.007230,-0.095978,-0.011386,-0.034497,-0.025421,-0.043087,-0.132676,-0.217001,-0.336778,-0.319325,0.180050,-0.090359,0.068732,0.331692,0.804902,0.700266,-0.188626,-0.099231,0.036871,-0.339958,0.137292,0.429899,0.441947,0.434983,0.519190,0.525066,0.521149,0.243049,0.005820,-0.233457,-0.020932,-0.033488,-0.023024,-0.020072,-0.123108,-0.381195,-0.411001,-0.246830,0.194133,-0.053320,0.034933,0.216613,0.822440,0.616209,0.511258,0.438197,-0.020907,-0.271538,-0.001385,0.223344,0.440175,0.087326,0.273197,0.591880,0.336348,0.007317,-0.243784,-0.266012,-0.076206,-0.049357,-0.056359,-0.034067,-0.136002,-0.492001,-0.501563,-0.138044,-0.127612,-0.170263,-0.157518,0.170582,0.870403,0.357654,0.099776,-0.268092,-0.923917,-0.911799,-0.382580,-0.130182,0.178995,0.247880,0.741840,0.867160,0.267635,-0.214193,-0.259372,-0.279592,-0.066835,-0.000295,-0.062033,-0.031723,-0.147425,-0.480239,-0.670653,-0.344213,0.101223,0.269066,0.165108,0.196934,0.730127,0.677352,0.192202,-0.629282,-0.994318,-0.368454,0.045393,0.311685,0.201074,-0.050242,0.337268,0.438783,-0.199604,-0.421862,-0.263172,-0.141151,-0.086120,0.001555,0.001198,-0.032858,-0.113457,-0.259752,-0.666251,-0.579008,-0.408736,0.295894,0.544523,0.605597,0.804075,0.907551,0.529342,-0.160205,0.053484,0.565540,0.363654,0.526759,0.150627,-0.191556,-0.182581,-0.277545,-0.349417,-0.425425,-0.207129,-0.026148,-0.000032,-0.002173,-0.010318,-0.035048,-0.098640,-0.243556,-0.553151,-0.705073,-0.402880,-0.098251,0.317876,0.561508,-0.205759,0.464814,0.820894,0.926527,1.019524,0.912442,0.676108,0.436606,0.051422,0.013697,-0.342469,-0.475556,-0.278780,-0.158148,-0.024016,-0.035498,-0.015956,-0.044521,-0.026237,-0.026919,-0.086951,-0.237268,-0.397589,-0.611069,-0.427406,-0.345204,0.066326,0.229824,-0.021967,0.365646,0.935339,0.800648,0.899739,0.589741,0.522977,-0.038371,-0.348025,-0.247216,-0.430707,-0.309196,-0.135361,-0.096824,-0.062823,-0.037747,-0.062746,-0.031476,0.006162,-0.014021,-0.012716,-0.114627,-0.272407,-0.418405,-0.566564,-0.851026,-0.619851,-0.339556,-0.500746,-0.238560,-0.454102,-0.620685,-0.467518,-0.538355,-0.691166,-0.576787,-0.564987,-0.246124,-0.178645,-0.216452,-0.258969,-0.064775,-0.054448,0.004329,-0.015487,0.006938,-0.034872,-0.014045,-0.031764,-0.050818,-0.079085,-0.160163,-0.295232,-0.488937,-0.503563,-0.622914,-0.743575,-0.627178,-0.796940,-0.785192,-0.731530,-0.810645,-0.771663,-0.581040,-0.449374,-0.235517,-0.201509,-0.107657,-0.062686,-0.070920,-0.045769,-0.031715,-0.059411,-0.016088,-0.033844,-0.010742,-0.016714,-0.006108,-0.033022,-0.071495,-0.097690,-0.107219,-0.197268,-0.239405,-0.302093,-0.332556,-0.462484,-0.386203,-0.366542,-0.353604,-0.292693,-0.241833,-0.244606,-0.124464,-0.131078,-0.082642,-0.057926,-0.048848,-0.044698,-0.021185,-0.042733,-0.023823,-0.059953,-0.037988,-0.047164,-0.030328,-0.056810,-0.002888,-0.053581,-0.036744,-0.079622,-0.039095,-0.060030,-0.078108,-0.091726,-0.075435,-0.053862,-0.094410,-0.119143,-0.075443,-0.052885,-0.031887,-0.064588,-0.005287,-0.028662,-0.036064,-0.035432,-0.008492,-0.019500,-0.015205,-0.036939,0.001924,-0.046313,-0.032178,-0.041913,-0.028308,0.008759,-0.034159,-0.037441,-0.040569,0.006380,-0.036430,-0.025938,-0.048705,-0.009846,-0.019362,-0.077456,-0.056530,-0.077226,-0.015251,-0.060226,-0.010975,-0.020208,-0.009893,-0.007721,-0.052914,-0.052831,-0.050422,0.002752,-0.008175,-0.001470,-0.041457,-0.013925,-0.054529,-0.008657,-0.064119,-0.019259,-0.012427,-0.032410,-0.062139,0.001223,-0.039016,-0.037660,-0.016735,-0.012264,-0.052607,-0.051939,-0.061111,-0.035046,-0.061371,-0.000755,-0.062118,-0.061495,-0.028037,-0.007855
0.018320,0.006585,0.026849,-0.039374,0.002066,0.011404,0.023313,0.024767,-0.009388,-0.038998,0.007461,-0.009358,0.004954,-0.015334,0.019651,0.005595,-0.020931,-0.024993,-0.035135,0.029702,0.028697,-0.021970,-0.028789,-0.038683,0.023712,-0.015448,0.024720,0.025751,-0.012786,-0.010588,0.010625,-0.025116,-0.034652,0.006825,-0.023711,0.008168,-0.013655,-0.032290,0.001416,0.018893,-0.029982,-0.020168,0.055641,0.192247,0.029439,-0.028906,-0.008550,0.024379,-0.015709,-0.001373,0.023906,-0.018200,0.015867,-0.035972,-0.016105,0.008930,-0.010640,-0.022035,0.004031,0.017352,0.008157,-0.015993,-0.038413,0.013783,-0.042214,-0.024536,-0.017037,-0.022958,-0.029676,-0.075517,-0.047114,0.144499,0.053197,-0.004115,-0.029738,0.005164,-0.011975,0.008946,0.023032,0.029179,-0.016014,0.015316,-0.018972,-0.030463,0.020124,0.005702,0.019342,-0.021143,0.024446,-0.007537,-0.034645,-0.003778,-0.011782,-0.089054,-0.058436,-0.100264,-0.194592,-0.393981,-0.495908,-0.257582,-0.082026,-0.051864,-0.196524,-0.087372,-0.028639,-0.047993,-0.011948,0.006374,-0.001742,-0.035927,0.003308,0.024613,0.021227,0.027027,-0.036170,0.010804,0.003481,0.020312,0.022239,-0.036728,-0.085408,-0.247943,-0.417748,-0.586109,-0.632674,-0.559763,-0.252186,0.060472,0.098750,-0.085637,0.059402,0.281890,0.174257,0.098321,0.112621,0.080313,0.030146,-0.008775,-0.021196,-0.043454,0.008851,-0.037723,0.030724,-0.000337,0.029558,-0.048368,-0.092515,-0.168965,-0.362802,-0.572056,-0.869382,-1.099793,-1.120629,-0.713623,-0.001013,0.244557,0.167410,0.219007,0.174884,0.049056,0.001255,0.024751,0.189555,0.044434,0.002884,-0.088388,-0.051977,0.008024,-0.024908,0.005164,0.027205,0.026409,0.003706,-0.032051,-0.151006,-0.251638,-0.320671,-0.553975,-0.885739,-1.008392,-1.231987,-1.009623,-0.261274,-0.081096,-0.107392,0.027748,-0.018596,-0.372861,-0.127692,-0.149449,0.097174,-0.015899,-0.139544,-0.081754,-0.006344,-0.040801,-0.033793,0.014764,0.024317,-0.016572,-0.014475,-0.023641,-0.203138,-0.209478,-0.259195,-0.426135,-0.814623,-0.930390,-1.028623,-0.986217,-0.303667,-0.315241,-0.353125,-0.225992,-0.342333,-0.639992,-0.182587,0.107257,0.009311,-0.069280,-0.282128,-0.084728,-0.038515,0.009246,-0.033248,-0.000048,0.016120,-0.024555,-0.024295,-0.062685,-0.187069,-0.202864,-0.350778,-0.433169,-0.661752,-0.904324,-1.083099,-1.026787,-0.364779,-0.245197,-0.241740,0.347917,-0.138249,-0.540160,-0.290139,-0.105952,-0.221476,-0.145296,-0.233690,-0.096031,-0.015357,-0.016502,-0.025614,-0.010038,-0.033476,-0.016867,0.013966,-0.029800,-0.195896,-0.299440,-0.458876,-0.617443,-0.739911,-1.135193,-1.508103,-1.226768,-0.429307,0.322338,0.537872,0.539256,0.153051,-0.324545,-0.343271,-0.109378,0.049746,-0.058824,-0.175701,-0.045698,0.006084,-0.009054,0.008546,0.006874,0.014394,0.021740,-0.054552,0.000166,-0.291072,-0.370937,-0.388990,-0.461921,-0.601933,-1.181278,-1.599818,-1.160492,-0.012843,0.789365,0.906838,0.475564,0.188701,0.012795,-0.209694,-0.058421,0.030322,-0.020180,-0.006889,0.083720,-0.012890,0.027877,0.023678,0.012779,-0.015571,-0.000832,-0.004483,-0.015077,-0.112860,-0.207453,-0.287614,-0.399960,-0.578460,-1.088988,-1.437899,-0.456836,0.589828,0.785560,0.773582,0.526006,0.408207,-0.077694,-0.154769,-0.021341,-0.095923,0.035341,0.102334,0.021629,-0.016237,0.003870,-0.040100,-0.024612,-0.000880,0.024141,0.086143,0.021693,-0.057157,-0.171527,-0.316485,-0.380706,-0.476639,-1.002787,-0.625228,0.329537,0.795766,0.355404,0.365096,0.462754,0.080810,-0.551188,-0.535532,-0.251344,-0.117933,-0.050852,-0.010479,-0.055517,0.011795,0.009075,-0.013486,0.005559,-0.011678,0.018804,0.056466,-0.067831,-0.056941,-0.116719,-0.235022,-0.219909,-0.367105,-0.721247,-0.009973,0.773658,0.416038,0.095698,-0.211407,-0.121965,-0.718701,-0.839502,-0.548040,-0.365420,-0.222065,-0.167390,-0.097623,-0.071363,0.009413,-0.017541,-0.026976,0.013425,-0.029034,0.066261,-0.028914,-0.000247,0.002190,-0.140473,-0.181494,-0.110790,-0.334114,-0.435471,-0.074265,0.286940,0.190768,-0.057490,0.011018,-0.690925,-0.994998,-0.714770,-0.475144,-0.313557,-0.148514,-0.077979,-0.066378,-0.046991,0.000850,0.002461,-0.016104,-0.002249,0.055058,-0.005579,-0.028418,-0.093884,-0.151850,-0.135894,-0.247628,-0.271748,-0.524085,-0.377456,0.027599,-0.017705,-0.035606,-0.317200,0.047062,-0.841358,-0.713493,-0.521443,-0.382538,-0.171989,-0.169600,-0.128585,-0.058601,-0.060561,0.011567,-0.034881,0.007040,0.001355,0.028789,-0.041908,-0.019868,-0.009386,-0.100976,-0.210096,-0.335664,-0.284792,-0.334984,0.210733,0.161506,0.229031,-0.064814,-0.246058,-0.310943,-0.714197,-0.330118,-0.244438,-0.189011,-0.088860,-0.103069,-0.063200,-0.043941,-0.042616,0.055564,-0.010151,0.019024,0.013093,-0.003784,-0.016974,-0.022829,-0.100446,-0.139145,-0.196975,-0.133984,-0.129064,0.288982,0.450919,0.561800,0.471642,-0.022782,-0.313229,-0.865617,-0.609919,-0.226363,-0.216128,-0.126764,-0.172974,-0.159175,-0.076659,-0.040345,-0.029528,0.051777,-0.004471,-0.037961,-0.015809,0.028937,0.003548,-0.121413,-0.249718,-0.355207,-0.018245,0.305500,0.420003,0.337737,0.647296,0.659551,0.481333,-0.280528,-0.652028,-1.120114,-0.463298,-0.235106,-0.169068,-0.096736,-0.090828,-0.185551,-0.134541,-0.036474,0.006689,0.037521,0.024958,-0.036799,-0.000832,-0.008416,-0.049153,-0.122885,-0.379209,-0.249253,0.007261,0.087590,0.340621,0.016718,0.309521,0.375020,0.299128,-0.356342,-0.965967,-0.767408,-0.471590,-0.357116,-0.349370,-0.271529,-0.363441,-0.396293,-0.198543,-0.033111,0.026602,0.063547,0.025648,0.029045,-0.004539,0.005190,-0.070694,0.018423,-0.065264,0.056813,-0.002715,0.050499,-0.298491,-0.360307,-0.027831,0.301768,-0.075512,-0.070836,-0.827639,-0.505988,-0.517508,-0.445600,-0.464654,-0.406212,-0.308910,-0.280539,-0.199835,-0.176209,-0.092776,0.050430,-0.034842,0.000627,0.017398,0.005166,-0.023616,-0.044645,-0.063733,-0.022692,-0.306244,-0.426693,-0.439901,-0.529066,-0.512806,-0.581770,-0.234288,-0.165073,-0.379230,-0.537120,-0.702155,-0.623589,-0.583795,-0.321348,-0.187385,-0.094228,-0.061860,0.004364,0.004993,0.005392,0.028021,0.016943,0.024496,-0.061406,-0.030375,0.004212,-0.041293,-0.028013,-0.258330,-0.251356,-0.173109,-0.510152,-0.789932,-0.886194,-0.192387,0.136372,-0.190506,-0.345135,-0.469091,-0.449914,-0.318166,-0.236216,-0.189067,-0.073736,-0.022242,-0.028134,-0.029912,0.026817,-0.031638,0.021818,-0.006539,-0.034302,-0.028628,-0.045586,-0.008010,0.081065,-0.053030,-0.017453,-0.159642,-0.313548,-0.260356,-0.006254,0.144838,0.084873,0.046400,-0.169487,-0.217670,-0.226598,-0.247273,-0.178211,-0.152850,-0.036454,-0.027458,0.054019,0.049151,0.028164,0.012152,-0.024176,0.015708,0.021294,-0.054171,-0.123950,-0.116073,-0.090660,-0.130361,-0.078370,-0.202592,-0.445381,-0.604676,-0.329714,0.079312,-0.098226,-0.156028,-0.242547,-0.196636,-0.152204,-0.075436,-0.044172,-0.020147,-0.022689,-0.017179,-0.038128,0.029718,0.015749,0.003499,-0.038028,0.004801,-0.014998,-0.021261,-0.094494,-0.112251,-0.107974,-0.103978,-0.050623,-0.262958,-0.480841,-0.529761,-0.405374,-0.283461,-0.361117,-0.222006,-0.130820,-0.037270,-0.031766,-0.000664,-0.035050,-0.010589,0.000925,0.030915,-0.011231,-0.033825,-0.006097,-0.001461,-0.034420,-0.021009,-0.028612,-0.032215,0.018936,-0.011946,-0.026792,-0.042161,-0.009761,-0.000100,-0.094242,-0.071830,-0.134183,-0.136350,-0.161255,-0.105782,-0.046325,0.004294,0.010821,0.001997,0.007543,-0.031389,-0.020513,0.015545,-0.001225,0.022176,0.013847,0.027936,0.029130,-0.022899,-0.004175,-0.035939,-0.003129,0.008225,-0.027195,-0.009568,-0.025047,0.001566,0.008271,0.027913,-0.015038,0.016387,0.024089,-0.017669,-0.023827,-0.030523,-0.026664,0.014030,0.028530,-0.029602,-0.010500,0.005211,-0.020504,0.009805,-0.009808,0.019050
-0.000838,-0.028780,0.014167,-0.002357,-0.010900,-0.020657,0.002482,0.026751,0.028116,0.016433,-0.013105,-0.028021,-0.016136,-0.037092,-0.030794,0.013956,-0.040619,-0.035019,-0.034506,-0.023927,-0.023163,-0.013368,-0.039489,-0.025290,-0.002293,-0.009266,0.020706,0.017982,-0.030111,-0.019752,0.006382,0.012000,-0.005716,-0.008451,-0.035525,-0.009598,-0.022199,0.006938,0.010937,-0.022023,-0.029091,-0.083313,-0.123808,-0.143280,-0.110126,-0.052538,-0.072122,-0.052034,-0.035922,-0.032415,0.011533,-0.012335,-0.002975,0.022508,0.016030,-0.033748,-0.015238,0.008256,0.027182,-0.002404,-0.040182,0.004205,-0.034628,-0.091306,-0.129838,-0.064296,-0.127363,-0.167929,-0.272628,-0.331528,-0.359776,-0.412767,-0.298670,-0.120839,-0.210342,-0.129324,0.000874,-0.015546,-0.058866,-0.032910,0.018249,0.020483,0.016971,-0.013269,0.014520,0.004520,-0.004069,-0.029322,-0.015816,-0.007606,-0.049413,-0.158049,-0.185082,-0.197064,-0.297217,-0.518559,-0.537442,-0.730003,-0.641865,-0.676150,-0.696912,-0.618141,-0.387773,-0.280465,-0.108627,-0.025908,0.021285,0.030670,-0.021853,-0.021782,-0.037504,-0.034242,-0.029760,0.022415,-0.004564,0.027593,-0.003487,-0.089012,-0.155363,-0.160197,-0.175253,-0.266526,-0.662781,-0.825214,-0.960927,-0.976369,-1.180954,-1.074911,-0.620360,-0.781965,-0.632778,-0.441961,-0.089575,0.080258,0.326970,0.275539,0.093338,-0.043131,-0.033860,0.020626,-0.019027,-0.019268,-0.041548,-0.013013,-0.062559,-0.105503,-0.284098,-0.255818,-0.010347,-0.245992,-0.662379,-0.690868,-0.663666,-1.245805,-1.694299,-1.279224,-1.537345,-1.789540,-1.689808,-1.199956,-0.885554,-0.344841,-0.105800,0.048203,0.055781,-0.029472,-0.017333,-0.009192,-0.032646,-0.041621,-0.027443,0.041631,0.000548,-0.038316,-0.192606,-0.222749,-0.035475,-0.473738,-0.731795,0.160063,-0.184348,-0.965153,-0.537906,0.119169,-0.053446,-0.200318,-0.533658,-0.765424,-0.402423,0.300070,-0.020975,-0.178968,-0.225046,-0.166804,-0.089209,-0.008939,0.015161,-0.061543,0.065960,0.196081,0.003783,0.020515,-0.138267,-0.384640,-0.094560,-0.023260,0.405260,0.804820,0.678935,0.076546,-0.355083,-0.348155,0.345929,0.159919,0.178609,-0.225881,-0.412389,-0.252116,-0.212635,-0.356892,-0.727345,-0.393045,-0.019126,-0.034268,-0.036092,-0.029501,0.009559,0.172498,0.127423,0.111159,-0.257537,-0.499182,-0.083042,-0.083978,-0.160666,0.138692,-0.539435,-0.281827,0.156051,-0.201530,-0.216614,-0.355662,0.159595,-0.640868,-0.680152,-0.531044,-0.167600,-0.625504,-0.957911,-0.562418,-0.102321,-0.018778,0.014668,0.031611,0.004376,0.085051,0.149821,0.126057,-0.509691,-0.457408,0.224195,0.238280,0.095762,0.222314,0.855069,0.951046,0.197824,0.170615,0.142051,0.222053,0.174269,-0.238739,-0.538780,-0.868800,-0.629775,-1.168342,-1.028717,-0.462647,-0.101102,-0.034344,0.013192,-0.028440,-0.052973,0.093767,0.364492,0.222954,-0.309325,-0.005044,0.669196,1.133415,0.615877,1.078593,1.512448,0.831517,-0.469273,-0.008292,0.899901,0.948913,0.887415,-0.080013,-0.361493,-0.539858,-0.950048,-1.034144,-1.062864,-0.439731,-0.325928,-0.063005,-0.032599,-0.034284,0.010157,0.191932,0.408102,0.357080,0.015322,0.195924,0.537725,0.765146,0.806706,1.106875,0.876752,-0.338642,-0.333548,0.846304,1.651463,1.899748,0.650833,0.826208,0.332481,-0.739641,-1.425737,-1.652888,-1.374379,-0.496437,-0.139448,-0.040808,-0.036434,-0.015752,0.062131,0.095197,0.340920,-0.109402,0.388526,0.818106,0.597570,0.460260,0.176537,0.814263,0.034882,-1.217278,-0.319907,0.594635,2.137941,1.965727,1.431090,1.482647,0.411828,-0.244766,-1.109664,-1.679045,-0.859569,-0.219236,-0.078457,0.010177,-0.002966,-0.013633,-0.001671,0.062167,0.390073,0.186889,0.525786,1.242364,0.793121,-0.066405,0.227711,-0.240946,-0.842542,-1.851013,-0.857281,1.038488,1.847267,1.697261,1.669533,1.731469,0.977939,-0.027122,-0.809023,-1.061111,-0.284484,0.010149,-0.158898,-0.090079,-0.002528,0.002891,-0.035757,-0.075336,0.324640,0.105022,0.782944,1.729553,0.808545,0.039907,-0.342125,-0.151746,-0.697056,-1.212649,-0.501611,1.490143,1.802533,1.434411,1.737738,1.949231,1.111035,0.064867,-0.274850,-0.343412,-0.316478,-0.095147,-0.120597,0.017729,0.002574,0.024001,-0.050152,-0.093713,0.130928,-0.064927,0.616713,0.709525,0.722221,0.427892,0.378962,-0.523205,-1.035089,-1.512723,-0.161002,1.661342,1.519303,1.595290,1.597098,1.906646,0.690809,-0.348112,-0.351585,-0.316790,-0.282392,-0.240483,-0.109712,0.024019,-0.042174,-0.024396,0.000691,-0.122451,-0.101831,-0.256534,-0.065415,0.613129,0.983132,0.721655,-0.141686,-0.686175,-1.293251,-0.704078,0.602968,1.485072,1.648744,1.772669,1.591551,0.498137,0.269956,-0.423064,-0.619883,-0.985519,-0.611156,-0.363367,-0.190364,-0.031050,0.006221,-0.017357,-0.053173,-0.244124,-0.513571,-0.947133,-1.030078,-0.146839,0.299215,-0.129034,-0.229209,-0.108557,0.039551,0.707839,0.963477,1.004157,0.706378,1.243625,0.652361,-0.635535,-0.200121,-0.718888,-1.368637,-1.506853,-0.927525,-0.294580,-0.140240,0.010421,-0.010289,0.009599,-0.059989,-0.207856,-0.819758,-1.333390,-1.391609,-0.951265,-1.049574,-1.300711,-0.640664,-0.664158,-0.666859,-0.225316,0.309384,0.297432,-0.440012,-0.547747,-1.557489,-1.786308,-1.123793,-0.980769,-1.523862,-1.583653,-0.715206,-0.263653,-0.031080,-0.036952,-0.007977,-0.005633,0.003603,-0.005648,-0.643707,-1.277541,-1.636558,-1.831192,-2.082047,-2.485784,-2.418790,-2.197945,-1.828301,-1.794068,-0.244814,-0.162961,-0.629293,-1.256815,-1.661434,-1.628288,-1.644370,-1.358667,-1.523767,-1.045996,-0.420255,-0.168417,0.010256,0.010607,-0.013755,-0.033062,-0.008145,-0.097348,-0.546442,-0.956766,-1.439920,-1.709153,-1.766459,-2.290107,-2.711531,-2.277150,-2.396255,-1.740147,-0.892738,-0.738699,-0.306821,-1.234952,-1.596745,-1.631449,-1.207937,-0.845529,-0.879301,-0.578365,-0.216913,-0.054363,-0.014662,-0.027577,-0.025631,-0.024680,0.004333,-0.142414,-0.394336,-0.782775,-1.486314,-1.689600,-1.139205,-0.960538,-1.657463,-1.875617,-2.163677,-1.493929,-1.354835,-0.847201,0.213004,-0.949233,-1.373724,-1.198407,-0.916816,-0.745568,-0.739317,-0.322950,-0.199885,-0.165639,-0.040618,-0.008325,0.007693,-0.001163,-0.038099,-0.126532,-0.258411,-0.641925,-0.852454,-0.866023,-0.350589,-0.951113,-0.924409,-0.798501,-1.087374,-0.910022,-0.716600,-0.625960,-0.147087,-0.961415,-0.879412,-0.751763,-1.057648,-0.884599,-0.599218,-0.111961,-0.175766,-0.192250,-0.038480,-0.018539,-0.025207,-0.027022,-0.043250,-0.088531,-0.132383,-0.147857,-0.220050,0.234609,-0.135556,-1.001667,-0.192260,-0.341179,-0.683461,-0.705068,-0.740566,-0.639613,-0.630933,-0.532772,-0.577153,-0.521820,-0.862952,-0.682944,-0.186590,-0.143924,-0.144258,-0.111884,-0.038183,0.002406,-0.026613,-0.028731,0.018879,-0.029597,0.122559,0.577206,0.647631,0.645069,0.508052,-0.289898,-0.070550,-0.811398,-0.871617,-0.623322,-0.503868,-1.022912,-0.479175,-0.051456,-0.214072,-0.120332,0.027994,0.073011,0.094122,0.038744,0.003553,-0.066908,-0.029422,-0.009664,-0.035459,-0.003311,-0.036616,-0.015589,0.270120,0.609026,0.787414,0.830378,0.729120,0.222204,-0.044464,0.261728,-0.149558,0.127668,0.220776,-0.065559,-0.029774,0.201155,0.539761,0.366400,0.162676,0.133012,0.065787,0.016584,-0.009558,-0.009772,-0.062747,-0.008014,0.025232,-0.009384,0.025271,-0.037083,-0.027861,0.066582,0.294037,0.109091,-0.000301,0.085108,0.163043,0.117680,0.062724,0.264122,0.560439,0.507066,0.320966,0.207017,0.062920,0.107802,0.116853,0.042024,-0.012580,0.024807,-0.034238,-0.018128,0.003835,0.001791,-0.039217,0.004546,-0.034703,-0.042465,-0.033196,-0.033227,-0.028430,-0.019763,-0.024359,-0.003096,0.026363,-0.032283,-0.006719,0.025100,0.002237,-0.006839,-0.014836,-0.008778,-0.032008,0.034468,0.008192,0.016632,0.021457,-0.016682,-0.038300,-0.031402,-0.021254,-0.029370
